tree
version=v4
num_class=1
num_tree_per_iteration=1
label_index=0
max_feature_idx=10
objective=binary sigmoid:1
feature_names=age_building plinth_area_sq_ft height_ft_pre_eq land_surface_condition foundation_type roof_type ground_floor_type other_floor_type position plan_configuration superstructure
feature_infos=[0:999] [70:4560] [6:99] -1:0:1:2 -1:2:4:1:0 -1:1:0:2 -1:1:3:0:2 -1:2:3:0:1 -1:3:0:1 -1:6:7:3:4:8:5:9:1:2 -1:9:0:2:3:6:5:10:4:8:1
tree_sizes=2915 3051 3069 3075 3071 3098 3056 3078 3074 3075 3079 3067 3084 3084 3174 3177 3179 3170 3169 3078 3167 3189 3165 3181 3170 3159 3203 3184 3161 3179 3148 3179 3268 3164 3167 3166 3167 3169 3289 3167 3193 3306 3189 3328 3193 3227 3316 3167 3101 3278 3112 3423 3177 3189 3377 3321 3394 3178 3404 3299 3405 3215 3404 3214 3397 3074 3417 3395 3196 3379 3171 3377 3176 3421 3408 3039 3051 3051 3164 3046 3146 3071 3041 3074 3036 3057 3054 3024 3062 3054 2958 3121 2945 3068 2947 3127 2948 3099 2974 3092 2946 3152 3074 2972 3157 3089 3170 3069 3160 2976 3017 3170 3114 3165 3126 2956 3123 3144 2932 3163 2940 3122 2929 3067 3137 3116 3136 2954 3084 3168 2984 3092 3131 3166 3112 2980 3072 3174 2979 3082 3175 2961 3122 3179 3104 3000 3198 3085 2833 3171 3135 3178 2949 3136 3138 3159 2972 3220 3078 3199 2977 3070 3222 3158 2970 3192 3182 2964 3238 3166 2963 3224 3177 3343 2955 3159 3336 2956 3180 3310 3209 3332 3148 3044 3204 3178 3057 3181 3180 3051 3183 3197 3170 3193 3076 3057 3191 3210 3055 3191

Tree=0
num_leaves=28
num_cat=11
split_feature=10 0 2 2 2 5 1 10 7 0 0 10 0 10 3 0 5 5 1 1 0 3 0 0 8 2 0
split_gain=6844.8 592.632 531.247 194.438 167.962 145.405 112.659 104.171 62.8619 39.3621 37.615 36.3096 20.7188 13.3513 12.6216 13.8216 9.93926 8.93481 8.50936 6.18234 3.35335 2.5785 2.53042 0.988384 3.32881 1.55716 0.762848
threshold=0 14.500000000000002 16.500000000000004 25.500000000000004 22.500000000000004 1 363.50000000000006 2 3 38.500000000000007 23.500000000000004 4 32.500000000000007 5 6 3.5000000000000004 7 8 545.50000000000011 328.50000000000006 42.500000000000007 9 20.500000000000004 49.500000000000007 10 19.500000000000004 12.500000000000002
decision_type=9 2 2 2 2 1 2 9 1 2 2 9 2 9 1 2 1 1 2 2 2 1 2 2 9 2 2
left_child=1 4 10 6 7 20 -4 8 -1 -5 11 -3 14 -12 18 -16 -6 -9 -7 -18 21 26 -23 25 -25 -14 -2
right_child=5 2 3 9 16 12 -8 17 -10 -11 13 -13 23 -15 15 -17 19 -19 -20 -21 -22 22 -24 24 -26 -27 -28
leaf_value=0.1990777401379227 0.17380977619831334 0.20086920756744098 0.19947431954054048 0.18674676815184352 0.17719259057840542 0.18134088803171619 0.19647046228697695 0.17724112805624359 0.19495192219252536 0.19364971931209959 0.20301028635912474 0.1918908915533217 0.19730846289366216 0.20040374070490105 0.17680325804340552 0.18965809349786955 0.18508982187799941 0.18620513787197926 0.17712718898417965 0.18903639227285524 0.18027365496429945 0.17561681485153161 0.18357818116279684 0.18308781395812307 0.19462586583279981 0.19013000424025336 0.17448353618440776
leaf_weight=412.54798051714897 795.38062030076981 1497.157917290926 1964.9269060045481 190.92106421291828 7.9240908622741699 184.97799606621265 3428.1598092913628 12.876647651195526 2919.7798549085855 146.34805311262608 2043.1773032695055 43.334871903061867 4.952556788921358 411.06221348047256 11.638508453965185 31.201107770204544 45.811150297522545 97.565368741750717 67.85002800822258 354.85069392621517 10.152741417288778 64.630866095423698 4.9525567889213553 5.2001846283674222 5.200184628367424 7.1812073439359665 391.49961416423321
leaf_count=1666 3212 6046 7935 771 32 747 13844 52 11791 591 8251 175 20 1660 47 126 185 394 274 1433 41 261 20 21 21 29 1581
internal_value=0.195439 0.197739 0.199056 0.197104 0.194421 0.17584 0.197565 0.195141 0.195472 0.189739 0.201855 0.200628 0.181769 0.202625 0.181063 0.186142 0.188359 0.186005 0.180206 0.188583 0.174197 0.174149 0.176169 0.191076 0.188761 0.193142 0.174031
internal_weight=15161.3 13576.4 9725.09 5730.36 3851.36 1584.82 5393.09 3442.77 3332.33 337.269 3994.73 1540.49 318.202 2454.24 295.668 42.8396 408.586 110.442 252.828 400.662 1266.62 1256.46 69.5834 22.5341 10.4004 12.1338 1186.88
internal_count=61226 54826 39273 23141 15553 6400 21779 13903 13457 1362 16132 6221 1285 9911 1194 173 1650 446 1021 1618 5115 5074 281 91 42 49 4793
cat_boundaries=0 1 2 3 4 5 6 7 8 9 10 11
cat_threshold=521 4 513 8 513 512 1 4 4 1 8
is_linear=0
shrinkage=1


Tree=1
num_leaves=28
num_cat=10
split_feature=10 0 2 2 2 5 1 10 1 0 0 10 0 10 3 0 5 5 1 1 0 3 1 0 8 2 0
split_gain=6697.9 581.141 521.36 190.535 164.493 141.794 110.495 102.007 62.1633 38.5179 36.9489 35.6744 20.2401 13.1007 12.3211 13.502 9.71061 8.72399 8.29991 6.04422 3.26401 2.50699 2.51341 0.967457 3.25498 1.52578 0.737617
threshold=0 14.500000000000002 16.500000000000004 25.500000000000004 22.500000000000004 1 363.50000000000006 2 390.50000000000006 38.500000000000007 23.500000000000004 3 32.500000000000007 4 5 3.5000000000000004 6 7 545.50000000000011 328.50000000000006 42.500000000000007 8 310.50000000000006 49.500000000000007 9 19.500000000000004 12.500000000000002
decision_type=9 2 2 2 2 1 2 9 2 2 2 9 2 9 1 2 1 1 2 2 2 1 2 2 9 2 2
left_child=1 4 10 6 7 20 -4 8 -1 -5 11 -3 14 -12 18 -16 -6 -9 -7 -18 21 26 -23 25 -25 -14 -2
right_child=5 2 3 9 16 12 -8 17 -10 -11 13 -13 23 -15 15 -17 19 -19 -20 -21 -22 22 -24 24 -26 -27 -28
leaf_value=0.0013695975229347499 -0.021370037888970028 0.0053792288709031133 0.0039966450407133416 -0.0085980672676436287 -0.018033113477521883 -0.013938484256098324 0.0010213348286661165 -0.017985221384158829 -0.0013626692890606452 -0.0017709950599873584 0.0075016638493259034 -0.0035182115124416809 0.0018511923123845499 0.004918718867072353 -0.018417261051985507 -0.0057198235821962198 -0.010235499079516689 -0.0091333725526445454 -0.018097646342926849 -0.006334589881949397 -0.01499218962800461 -0.011667335365572098 -0.019592765519092385 -0.012213276731082641 -0.00080485514296646467 -0.0052531274004376394 -0.020705567428971526
leaf_weight=1702.1959373056889 796.96577942371368 1496.3552839159966 1964.1467537730932 191.07920747995377 7.937532901763916 185.22308211028576 3427.8144770264626 12.898435175418854 1630.1227876096964 146.37345130741596 2041.6420331001282 43.349717557430267 4.951650798320772 410.86096197366714 11.658652052283285 31.218424379825592 45.85613988339901 97.651103794574738 67.965517431497574 355.06847688555717 10.167171388864515 4.9605847001075736 64.746999680995941 5.2062481641769391 5.200595811009407 7.1848718374967575 392.25690972805023
leaf_count=6874 3212 6046 7935 771 32 747 13844 52 6583 591 8251 175 20 1660 47 126 185 394 274 1433 41 20 261 21 21 29 1581
internal_value=6.90881e-08 0.00227819 0.00358232 0.001649 -0.00100723 -0.0193674 0.00210535 -0.000294772 3.26136e-05 -0.00563972 0.00635667 0.00514016 -0.0135162 0.00712 -0.0142132 -0.00919569 -0.0070041 -0.00933114 -0.0150589 -0.00678325 -0.0209881 -0.0210357 -0.0190431 -0.00431824 -0.00660825 -0.0022722 -0.0211517
internal_weight=15161.1 13573.4 9721.62 5729.41 3851.73 1587.71 5391.96 3442.87 3332.32 337.453 3992.21 1539.71 318.609 2452.5 296.066 42.8771 408.862 110.55 253.189 400.925 1269.1 1258.93 69.7076 22.5434 10.4068 12.1365 1189.22
internal_count=61226 54826 39273 23141 15553 6400 21779 13903 13457 1362 16132 6221 1285 9911 1194 173 1650 446 1021 1618 5115 5074 281 91 42 49 4793
cat_boundaries=0 1 2 3 4 5 6 7 8 9 10
cat_threshold=521 4 513 513 512 1 4 4 1 8
is_linear=0
shrinkage=0.01


Tree=2
num_leaves=28
num_cat=9
split_feature=10 0 2 2 2 5 10 1 2 7 0 10 0 10 1 0 5 5 1 0 2 3 1 1 1 0 0
split_gain=6555.43 569.898 511.671 187.207 161.097 138.385 99.8923 93.1738 66.05 61.694 36.2973 35.0506 19.8052 12.8563 12.5358 12.4976 9.49074 8.52216 5.91028 3.18024 2.96846 2.44042 2.44871 2.15623 3.16292 2.50589 0.715664
threshold=0 14.500000000000002 16.500000000000004 22.500000000000004 22.500000000000004 1 2 391.50000000000006 25.500000000000004 3 23.500000000000004 4 29.500000000000004 5 545.50000000000011 3.5000000000000004 6 7 328.50000000000006 42.500000000000007 16.500000000000004 8 310.50000000000006 447.50000000000006 589.50000000000011 33.500000000000007 9.5000000000000018
decision_type=9 2 2 2 2 1 9 2 2 1 2 9 2 9 2 2 1 1 2 2 2 1 2 2 2 2 2
left_child=1 4 10 7 6 19 9 -4 -5 -1 11 -3 14 -12 15 -7 -6 -8 -18 21 -16 26 -23 25 -25 -14 -2
right_child=5 2 3 8 16 12 17 -9 -10 -11 13 -13 23 -15 20 -17 18 -19 -20 -21 -22 22 -24 24 -26 -27 -28
leaf_value=0.0036053046814002784 -0.02120350608677091 0.00532869559325786 0.0040468046905897739 -0.00039353943276043051 -0.017825658107044787 -0.016794954517672191 -0.017778374925605616 0.0011643358528299307 -0.0055804488817506118 -0.00048260500347269218 0.0074327547090825008 -0.0034886736204409441 -0.013086287076946106 0.0048730774936524826 -0.015419998834784961 -0.011411783043720501 -0.010123792688778362 -0.0090345243733170461 -0.0062675450523884549 -0.014823007668579214 -0.019741153201689843 -0.011539036194966023 -0.019365183375989723 0.0012872409182598157 -0.0083342402834585844 -0.0053715096637040154 -0.0205862968641214
leaf_weight=412.40346340835094 611.44098579883575 1495.5390465855598 2208.5954815596342 901.54493433237076 7.949549674987793 62.071446627378464 12.917919039726257 2280.6891768574715 337.6270789951086 2919.903078392148 2040.0648371577263 43.364174664020538 6.9490303993225124 410.65671741962433 31.794360429048538 151.40098851919174 45.898281782865524 97.731913030147552 355.27697113156319 10.180315315723417 40.488174676895142 4.9655573666095725 64.852292761206627 7.6854884177446348 5.9528401494026184 12.637808382511137 579.83453232049942
leaf_count=1666 2460 6046 8925 3642 32 250 52 9212 1362 11791 8251 175 28 1660 128 610 185 394 1433 41 163 20 261 31 24 51 2333
internal_value=1.78102e-07 0.00225604 0.00354795 0.00163279 -0.000997071 -0.0191431 -0.000291817 0.00258265 -0.00180758 3.22853e-05 0.00629756 0.00509154 -0.0133655 0.00705446 -0.0142178 -0.0129817 -0.00692963 -0.00923019 -0.00671123 -0.0207425 -0.0178543 -0.0207895 -0.0188229 -0.0060057 -0.00283901 -0.00815962 -0.0209039
internal_weight=15160.4 13570.2 9718.08 5728.46 3852.08 1590.25 3442.96 4489.28 1239.17 3332.31 3989.62 1538.9 318.98 2450.72 285.755 213.472 409.125 110.65 401.175 1271.27 72.2825 1261.09 69.8179 33.2252 13.6383 19.5868 1191.28
internal_count=61226 54826 39273 23141 15553 6400 13903 18137 5004 13457 16132 6221 1285 9911 1151 860 1650 446 1618 5115 291 5074 281 134 55 79 4793
cat_boundaries=0 1 2 3 4 5 6 7 8 9
cat_threshold=521 4 513 8 513 512 4 4 1
is_linear=0
shrinkage=0.01


Tree=3
num_leaves=28
num_cat=8
split_feature=10 0 2 2 2 5 10 1 2 1 0 10 0 10 1 0 5 5 1 0 2 3 0 1 1 0 0
split_gain=6417.22 558.856 502.177 183.527 157.783 135.169 97.8296 91.3925 64.6894 60.964 35.6597 34.4379 19.3572 12.6179 12.246 12.2081 9.27919 8.3288 5.78036 3.10164 2.89369 2.37831 2.43436 2.11 3.09789 2.44904 0.699969
threshold=0 14.500000000000002 16.500000000000004 22.500000000000004 22.500000000000004 1 2 391.50000000000006 25.500000000000004 390.50000000000006 23.500000000000004 3 29.500000000000004 4 545.50000000000011 3.5000000000000004 5 6 328.50000000000006 42.500000000000007 16.500000000000004 7 20.500000000000004 447.50000000000006 589.50000000000011 33.500000000000007 12.500000000000002
decision_type=9 2 2 2 2 1 9 2 2 2 2 9 2 9 2 2 1 1 2 2 2 1 2 2 2 2 2
left_child=1 4 10 7 6 19 9 -4 -5 -1 11 -3 14 -12 15 -7 -6 -8 -18 21 -16 26 -23 25 -25 -14 -2
right_child=5 2 3 8 16 12 17 -9 -10 -11 13 -13 23 -15 20 -17 18 -19 -20 -21 -22 22 -24 24 -26 -27 -28
leaf_value=0.0013562556469905334 -0.020877469583516248 0.005278684676541627 0.0040079954683470706 -0.00038958797882820815 -0.017623706938277119 -0.0166049528697239 -0.017577005137670475 0.0011528255967548796 -0.005521843232049739 -0.0013495274929388572 0.0073646293168677969 -0.0034594072496825241 -0.012941456181105909 0.0048278932230270298 -0.015247762838292994 -0.011287044945725149 -0.010013921748337918 -0.0089371927296072757 -0.0062013706606210521 -0.014657565006326197 -0.019514601758646756 -0.019148981975660211 -0.011353886909736648 0.0012745190152441122 -0.0082449305545817461 -0.0053151444583028097 -0.02022774650367011
leaf_weight=1701.9687838554382 799.54481667280197 1494.7098359465599 2207.6862463206053 901.58008731901646 7.9601821899414062 62.153460532426834 12.935165107250214 2280.4271293878555 337.79746815562248 1630.32581551373 2038.447559684515 43.378253653645515 6.9564926028251675 410.44965296983719 31.831776693463326 151.54273897409439 45.937653183937073 97.807937353849411 355.47641155123711 10.192209243774412 40.548321783542633 64.942343503236771 4.972159504890441 7.6845849454402906 5.9571262896060944 12.644077286124228 393.50222450494766
leaf_count=6874 3212 6046 8925 3642 32 250 52 9212 1362 6583 8251 175 28 1660 128 610 185 394 1433 41 163 261 20 31 24 51 1581
internal_value=3.03974e-07 0.00223416 0.00351393 0.00161673 -0.00098694 -0.0189253 -0.000288802 0.0025575 -0.00178921 3.20544e-05 0.00623909 0.00504342 -0.0132179 0.00698965 -0.0140598 -0.0128384 -0.00685618 -0.00913087 -0.00664017 -0.0205046 -0.0176519 -0.020551 -0.0186089 -0.00594286 -0.00280917 -0.00807284 -0.020664
internal_weight=15159.4 13566.9 9714.48 5727.49 3852.41 1592.47 3443.04 4488.11 1239.38 3332.29 3986.99 1538.09 319.319 2448.9 286.076 213.696 409.374 110.743 401.414 1273.15 72.3801 1262.96 69.9145 33.2423 13.6417 19.6006 1193.05
internal_count=61226 54826 39273 23141 15553 6400 13903 18137 5004 13457 16132 6221 1285 9911 1151 860 1650 446 1618 5115 291 5074 281 134 55 79 4793
cat_boundaries=0 1 2 3 4 5 6 7 8
cat_threshold=521 4 513 513 512 4 4 1
is_linear=0
shrinkage=0.01


Tree=4
num_leaves=28
num_cat=9
split_feature=10 0 2 2 2 5 10 1 2 7 0 10 0 10 1 0 5 5 2 0 2 3 1 1 1 0 0
split_gain=6283.06 548.052 492.872 179.921 154.538 132.128 95.8132 89.6461 63.3587 60.5479 35.0357 33.8363 18.9251 12.3853 11.9702 11.9314 9.07551 8.14344 5.67325 3.02783 2.82326 2.3204 2.37497 2.06495 3.03434 2.39403 0.680551
threshold=0 14.500000000000002 16.500000000000004 22.500000000000004 22.500000000000004 1 2 391.50000000000006 25.500000000000004 3 23.500000000000004 4 29.500000000000004 5 545.50000000000011 3.5000000000000004 6 7 31.500000000000004 42.500000000000007 16.500000000000004 8 310.50000000000006 447.50000000000006 589.50000000000011 33.500000000000007 9.5000000000000018
decision_type=9 2 2 2 2 1 9 2 2 1 2 9 2 9 2 2 1 1 2 2 2 1 2 2 2 2 2
left_child=1 4 10 7 6 19 9 -4 -5 -1 11 -3 14 -12 15 -7 -6 -8 -18 21 -16 26 -23 25 -25 -14 -2
right_child=5 2 3 8 16 12 17 -9 -10 -11 13 -13 23 -15 20 -17 18 -19 -20 -21 -22 22 -24 24 -26 -27 -28
leaf_value=0.0035721087717387498 -0.020724792608737608 0.0052291881987418243 0.0039695741874870138 -0.00038567794930291613 -0.017427032507081681 -0.016419623191852403 -0.017380881242200445 0.0011414295131102429 -0.0054639661548381612 -0.00047825327222426601 0.0072972715337681106 -0.0034304095093057618 -0.012799458224361513 0.0047831610903859428 -0.015079410596465144 -0.011164497337702049 -0.0063420538110542492 -0.0088413371128069958 -0.01297630102683236 -0.014495722995306609 -0.019294677076261771 -0.011231116604237954 -0.01893420243459552 0.0012619224095774793 -0.0081569202943896826 -0.0052594729773440185 -0.020120662589723101
leaf_weight=412.25739276409149 613.13127011060715 1493.8681925535202 2206.7683665454388 901.61480614542961 7.9694695472717285 62.226069718599319 12.950235366821289 2280.166042804718 337.96100284159184 2920.0222773551941 2036.7914301753044 43.391959741711617 6.9632973372936275 410.23984283208847 31.865114375948906 151.67341864109039 387.98893390595913 97.879294186830521 13.652424886822699 10.202887386083601 40.600127294659615 4.9762104153633109 65.021826833486557 7.6836844086647016 5.9611673951148987 12.65010544657707 581.41409902274609
leaf_count=1666 2460 6046 8925 3642 32 250 52 9212 1362 11791 8251 175 28 1660 128 610 1563 394 55 41 163 20 261 31 24 51 2333
internal_value=4.04534e-07 0.00221247 0.00348026 0.00160084 -0.000976999 -0.0187138 -0.000285908 0.00253259 -0.00177104 3.17318e-05 0.00618125 0.00499581 -0.0130734 0.00692556 -0.0139052 -0.012698 -0.00678373 -0.00903314 -0.00657005 -0.0202741 -0.0174549 -0.02032 -0.0184009 -0.00588088 -0.0027797 -0.00798736 -0.0204316
internal_weight=15157.9 13563.5 9710.8 5726.51 3852.72 1594.37 3443.11 4486.93 1239.58 3332.28 3984.29 1537.26 319.623 2447.03 286.365 213.899 409.611 110.83 401.641 1274.75 72.4652 1264.54 69.998 33.2583 13.6449 19.6134 1194.55
internal_count=61226 54826 39273 23141 15553 6400 13903 18137 5004 13457 16132 6221 1285 9911 1151 860 1650 446 1618 5115 291 5074 281 134 55 79 4793
cat_boundaries=0 1 2 3 4 5 6 7 8 9
cat_threshold=521 4 513 8 513 512 4 4 1
is_linear=0
shrinkage=0.01


Tree=5
num_leaves=28
num_cat=7
split_feature=10 0 2 2 2 5 10 1 2 1 0 10 0 10 1 0 5 1 1 0 2 3 0 1 1 0 0
split_gain=6152.82 537.442 483.752 176.385 151.369 129.251 93.8458 87.9339 62.0572 59.7879 34.4249 33.2454 18.5083 12.1584 11.7076 11.6669 8.87934 7.96804 5.65549 2.95848 2.75687 2.26634 2.36333 2.02105 2.97225 2.3408 0.667886
threshold=0 14.500000000000002 16.500000000000004 22.500000000000004 22.500000000000004 1 2 391.50000000000006 25.500000000000004 390.50000000000006 23.500000000000004 3 29.500000000000004 4 545.50000000000011 3.5000000000000004 5 279.50000000000006 328.50000000000006 42.500000000000007 16.500000000000004 6 20.500000000000004 447.50000000000006 589.50000000000011 33.500000000000007 12.500000000000002
decision_type=9 2 2 2 2 1 9 2 2 2 2 9 2 9 2 2 1 2 2 2 2 1 2 2 2 2 2
left_child=1 4 10 7 6 19 9 -4 -5 -1 11 -3 14 -12 15 -7 -6 -8 -18 21 -16 26 -23 25 -25 -14 -2
right_child=5 2 3 8 16 12 17 -9 -10 -11 13 -13 23 -15 20 -17 18 -19 -20 -21 -22 22 -24 24 -26 -27 -28
leaf_value=0.0013430469129159007 -0.02041552417403187 0.0051801992001043384 0.0039315361145442077 -0.00038180625909167384 -0.017235412151554046 -0.016238776249631166 -0.0024998197441317917 0.0011301447909774557 -0.0054068038573716936 -0.0013365154585484968 0.0072306676607339039 -0.0034016758054802015 -0.012660196412957979 0.0047388755556520739 -0.014914797815533912 -0.011044077366503716 -0.0098357576596415051 -0.0107511477226294 -0.006066975531521389 -0.014337351993218075 -0.019081083127518453 -0.018730047642381838 -0.011053080114892476 0.0012494497899391908 -0.0080701774560189808 -0.0052044822937587602 -0.019778675231664055
leaf_weight=1701.7410471588373 801.37895065546036 1493.0146569609642 2205.8424987047911 901.64913153648376 7.9774503707885742 62.28954553604126 13.675472646951674 2279.9061916470528 338.11786839365959 1630.5239948630333 2035.0980469733477 43.405300751328468 6.9694627225399044 410.02741068601608 31.894486233592033 151.79331986606121 45.996979475021362 97.233833402395248 355.86167122423649 10.212385177612303 40.643833592534065 65.087235614657402 4.9814900755882254 7.6827866435050947 5.9649697244167328 12.655898988246916 394.39948251843452
leaf_count=6874 3212 6046 8925 3642 32 250 55 9212 1362 6583 8251 175 28 1660 128 610 185 391 1433 41 163 261 20 31 24 51 1581
internal_value=5.2148e-07 0.00219104 0.00344695 0.00158511 -0.000967082 -0.0185084 -0.000282955 0.00250794 -0.00175307 3.15048e-05 0.00612404 0.00494868 -0.0129317 0.00686218 -0.0137539 -0.0125602 -0.00671223 -0.00893696 -0.00650084 -0.0200507 -0.017263 -0.020096 -0.0181985 -0.00581975 -0.00275057 -0.00790315 -0.0202063
internal_weight=15156 13560.1 9707.06 5725.52 3853.01 1595.95 3443.17 4485.75 1239.77 3332.27 3981.55 1536.42 319.894 2445.13 286.621 214.083 409.836 110.909 401.859 1276.06 72.5383 1265.85 70.0687 33.2731 13.6478 19.6254 1195.78
internal_count=61226 54826 39273 23141 15553 6400 13903 18137 5004 13457 16132 6221 1285 9911 1151 860 1650 446 1618 5115 291 5074 281 134 55 79 4793
cat_boundaries=0 1 2 3 4 5 6 7
cat_threshold=521 4 513 513 512 4 1
is_linear=0
shrinkage=0.01


Tree=6
num_leaves=28
num_cat=9
split_feature=10 0 2 2 2 5 10 1 0 7 0 10 0 10 1 0 5 5 2 0 2 3 0 1 1 0 0
split_gain=6026.3 527.06 474.812 172.919 148.267 126.528 91.9204 86.2553 61.8633 59.4233 33.827 32.6651 18.1059 11.9368 11.4573 11.4138 8.69024 7.95851 5.5477 2.8933 2.69425 2.2159 2.3086 1.97827 2.91157 2.28924 0.650634
threshold=0 14.500000000000002 16.500000000000004 22.500000000000004 22.500000000000004 1 2 391.50000000000006 38.500000000000007 3 23.500000000000004 4 29.500000000000004 5 545.50000000000011 3.5000000000000004 6 7 31.500000000000004 42.500000000000007 16.500000000000004 8 20.500000000000004 447.50000000000006 589.50000000000011 33.500000000000007 9.5000000000000018
decision_type=9 2 2 2 2 1 9 2 2 1 2 9 2 9 2 2 1 1 2 2 2 1 2 2 2 2 2
left_child=1 4 10 7 6 19 9 -4 -5 -1 11 -3 14 -12 15 -7 -6 -8 -18 21 -16 26 -23 25 -25 -14 -2
right_child=5 2 3 8 16 12 17 -9 -10 -11 13 -13 23 -15 20 -17 18 -19 -20 -21 -22 22 -24 24 -26 -27 -28
leaf_value=0.0035392342419590761 -0.020275524001780836 0.0051317090963178885 0.003893876999249095 -0.0033873028269646721 -0.017048640278688468 -0.016062235965603546 -0.017079849713590802 0.001118970161866449 0.0012837309489337708 -0.0004739392769527732 0.007164803457944742 -0.0033732046619793857 -0.012523580153275902 0.0046950292983846042 -0.014753783751281559 -0.010925719465243349 -0.0062071245633941816 -0.0086439934049187938 -0.01276266202290924 -0.014182320972999238 -0.018873541350187015 -0.018526972704794448 -0.010935518546779585 0.0012371004113920813 -0.0079846720464264616 -0.0051501616569732704 -0.019682797227401749
leaf_weight=412.10986639559269 614.26393032073975 1492.1497697234154 2204.9089172780514 801.62735792994499 7.9841618537902832 62.344149351119995 12.969826877117157 2279.6474386453629 438.32390555739403 2920.1377007812262 2033.3687625229359 43.418284505605698 6.9750068485736874 409.81250494718552 31.920006319880486 151.90275169909 388.39066006243229 98.014785826206207 13.673417344689367 10.220735609531401 40.679675981402397 65.142363607883453 4.9846764206886283 7.681892052292822 5.968539759516716 12.661463186144827 582.4899567514658
leaf_count=1666 2460 6046 8925 3235 32 250 52 9212 1769 11791 8251 175 28 1660 128 610 1563 394 55 41 163 261 20 31 24 51 2333
internal_value=6.1378e-07 0.0021698 0.00341397 0.00156954 -0.000957351 -0.0183087 -0.000280122 0.00248352 -0.00173528 3.11881e-05 0.00606743 0.00490203 -0.012793 0.00679948 -0.0136057 -0.0124251 -0.0066417 -0.00884213 -0.00643255 -0.0198339 -0.017076 -0.0198787 -0.0180016 -0.00575945 -0.00272179 -0.00782018 -0.0199879
internal_weight=15153.8 13556.5 9703.26 5724.51 3853.28 1597.24 3443.23 4484.56 1239.95 3332.25 3978.75 1535.57 320.133 2443.18 286.847 214.247 410.048 110.985 402.064 1277.1 72.5997 1266.88 70.127 33.2869 13.6504 19.6365 1196.75
internal_count=61226 54826 39273 23141 15553 6400 13903 18137 5004 13457 16132 6221 1285 9911 1151 860 1650 446 1618 5115 291 5074 281 134 55 79 4793
cat_boundaries=0 1 2 3 4 5 6 7 8 9
cat_threshold=521 4 513 8 513 512 4 4 1
is_linear=0
shrinkage=0.01


Tree=7
num_leaves=28
num_cat=8
split_feature=10 0 2 2 2 5 1 10 1 0 0 10 0 10 1 0 5 5 1 0 2 3 1 1 1 0 0
split_gain=5903.38 516.863 466.05 170.743 145.237 123.947 100.459 90.0427 58.6346 37.0916 33.2415 32.0951 17.7173 11.7205 11.2185 11.1715 8.50789 7.78948 5.53526 2.83198 2.63515 2.16877 2.29909 1.93656 2.85225 2.2393 0.640585
threshold=0 14.500000000000002 16.500000000000004 25.500000000000004 22.500000000000004 1 363.50000000000006 2 390.50000000000006 38.500000000000007 23.500000000000004 3 29.500000000000004 4 545.50000000000011 3.5000000000000004 5 6 328.50000000000006 42.500000000000007 16.500000000000004 7 310.50000000000006 447.50000000000006 589.50000000000011 33.500000000000007 12.500000000000002
decision_type=9 2 2 2 2 1 2 9 2 2 2 9 2 9 2 2 1 1 2 2 2 1 2 2 2 2 2
left_child=1 4 10 6 7 19 -4 8 -1 -5 11 -3 14 -12 15 -7 -6 -9 -18 21 -16 26 -23 25 -25 -14 -2
right_child=5 2 3 9 16 12 -8 17 -10 -11 13 -13 23 -15 20 -17 18 -19 -20 -21 -22 22 -24 24 -26 -27 -28
leaf_value=0.0013299699584208417 -0.019981465657505533 0.0050837123868360768 0.0037930500600647332 -0.0082342659233104985 -0.016866518146706762 -0.0158898315492596 0.00095368506391728316 -0.016896311442475897 -0.0013236289134058979 -0.0015430023813723787 0.0070996645943464508 -0.0033449923738347242 -0.012389523784670049 0.0046516172005544179 -0.014596235562556056 -0.010809362809079563 -0.0096625041327020184 -0.008552497963683476 -0.005936058303786196 -0.014030516034559711 -0.018671790937835133 -0.010764387619470525 -0.018333829067085358 0.0012248721587232731 -0.0079003769410940002 -0.0050964991405525037 -0.019355821697012002
leaf_weight=1701.5127181261778 802.51082271337509 1491.273891210556 1959.7617189586163 191.62946332991123 7.9896411895751953 62.39013135433197 3425.4436859935522 12.979556143283844 1630.7175936251879 146.67277836799622 2031.6050522178411 43.430916219949722 6.9799473285675075 409.5952245593071 31.941783547401428 152.00201115012169 46.049143001437187 98.072433635592461 356.21090249717236 10.22797045111656 40.707880109548569 4.9887021481990805 65.184539541602135 7.6810003966093046 5.9718837291002274 12.666804119944571 394.96856734156609
leaf_count=6874 3212 6046 7935 771 32 250 13844 52 6583 591 8251 175 28 1660 128 610 185 394 1433 41 163 20 261 31 24 51 1581
internal_value=7.24076e-07 0.0021488 0.00338132 0.00155412 -0.000947643 -0.0181145 0.00198716 -0.000277228 3.09661e-05 -0.00533619 0.00601142 0.00485586 -0.0126569 0.00673747 -0.0134605 -0.0122925 -0.00657209 -0.00874889 -0.00636513 -0.0196236 -0.0168937 -0.0196679 -0.01781 -0.00569996 -0.00269334 -0.00773841 -0.0197759
internal_weight=15151.2 13552.9 9699.41 5723.51 3853.53 1598.22 5385.21 3443.28 3332.23 338.302 3975.91 1534.7 320.341 2441.2 287.042 214.392 410.25 111.052 402.26 1277.88 72.6497 1267.65 70.1732 33.2996 13.6529 19.6468 1197.48
internal_count=61226 54826 39273 23141 15553 6400 21779 13903 13457 1362 16132 6221 1285 9911 1151 860 1650 446 1618 5115 291 5074 281 134 55 79 4793
cat_boundaries=0 1 2 3 4 5 6 7 8
cat_threshold=521 4 513 513 512 4 4 1
is_linear=0
shrinkage=0.01


Tree=8
num_leaves=28
num_cat=8
split_feature=10 0 2 2 2 5 10 1 0 7 0 10 0 10 1 0 5 1 2 0 2 3 1 1 1 0 0
split_gain=5783.89 506.885 457.461 167.696 142.27 121.501 88.2061 83.2968 60.2124 58.3197 32.668 31.5352 17.3418 11.5092 10.9907 10.9393 8.33191 7.77408 5.4273 2.77428 2.57933 2.12479 2.24853 1.8959 2.79428 2.1909 0.625562
threshold=0 14.500000000000002 16.500000000000004 22.500000000000004 22.500000000000004 1 2 391.50000000000006 38.500000000000007 3 23.500000000000004 4 29.500000000000004 5 545.50000000000011 3.5000000000000004 6 279.50000000000006 31.500000000000004 42.500000000000007 16.500000000000004 7 310.50000000000006 447.50000000000006 589.50000000000011 33.500000000000007 12.500000000000002
decision_type=9 2 2 2 2 1 9 2 2 1 2 9 2 9 2 2 1 2 2 2 2 1 2 2 2 2 2
left_child=1 4 10 7 6 19 9 -4 -5 -1 11 -3 14 -12 15 -7 -6 -8 -18 21 -16 26 -23 25 -25 -14 -2
right_child=5 2 3 8 16 12 17 -9 -10 -11 13 -13 23 -15 20 -17 18 -19 -20 -21 -22 22 -24 24 -26 -27 -28
leaf_value=0.0035066762202456509 -0.019773828964533165 0.0050362020231718768 0.0038260773369004236 -0.0033444562140106681 -0.01668886149895675 -0.015721407189240606 -0.0022872717706895153 0.0010984761748696686 0.0012638336375644132 -0.00046966248767480053 0.0070352390234186329 -0.0033170357626700602 -0.012257943878240316 0.0046086336654282776 -0.014442028727943956 -0.010694950167038239 -0.0060756654833694183 -0.0104308971642211 -0.012555489146377276 -0.013881817246836924 -0.018475586789943127 -0.010651635457164755 -0.018141492639228821 0.0012127642332454317 -0.0078172623131033646 -0.005043484377693884 -0.01915411770723659
leaf_weight=411.96093966066837 802.82653224468231 1490.3876520693302 2203.1817215681076 801.9025631994009 7.9939236640930176 62.427744269371033 13.694592416286467 2279.1693289875984 438.23487022519112 2920.2492637336254 2029.8082685023546 43.443203717470169 6.9843004345893887 409.37564373016357 31.959926396608353 152.09136624634266 388.75315882265568 97.418643578886986 13.691566437482832 10.234122693538664 40.728671535849571 4.9910821914672843 65.216698125004768 7.6801119297742826 5.9750077873468399 12.671927332878111 395.13562233746052
leaf_count=1666 3212 6046 8925 3235 32 250 55 9212 1769 11791 8251 175 28 1660 128 610 1563 391 55 41 163 20 261 31 24 51 1581
internal_value=8.08784e-07 0.002128 0.00334901 0.00153886 -0.000938118 -0.0179255 -0.000274454 0.00243938 -0.00171519 3.0654e-05 0.005956 0.00481017 -0.0125235 0.00667612 -0.0133183 -0.0121624 -0.0065034 -0.00865708 -0.0062986 -0.0194194 -0.0167159 -0.0194633 -0.0176233 -0.00564126 -0.00266523 -0.00765782 -0.0195703
internal_weight=15148.2 13549.3 9695.5 5722.49 3853.76 1598.92 3443.32 4482.35 1240.14 3332.21 3973.01 1533.83 320.519 2439.18 287.208 214.519 410.439 111.113 402.445 1278.4 72.6886 1268.17 70.2078 33.3113 13.6551 19.6562 1197.96
internal_count=61226 54826 39273 23141 15553 6400 13903 18137 5004 13457 16132 6221 1285 9911 1151 860 1650 446 1618 5115 291 5074 281 134 55 79 4793
cat_boundaries=0 1 2 3 4 5 6 7 8
cat_threshold=521 4 513 8 513 512 4 1
is_linear=0
shrinkage=0.01


Tree=9
num_leaves=28
num_cat=8
split_feature=10 0 2 2 2 5 1 10 1 0 0 10 0 10 1 0 5 5 1 0 2 3 0 1 1 0 0
split_gain=5667.71 497.084 449.04 165.924 139.372 119.18 96.9465 86.4116 57.5037 35.7855 32.1063 30.9854 16.9787 11.3029 10.7731 10.7167 8.16204 7.62334 5.41941 2.71996 2.52659 2.08367 2.2411 1.85624 2.7376 2.14397 0.616876
threshold=0 14.500000000000002 16.500000000000004 25.500000000000004 22.500000000000004 1 363.50000000000006 2 390.50000000000006 38.500000000000007 23.500000000000004 3 29.500000000000004 4 545.50000000000011 3.5000000000000004 5 6 328.50000000000006 42.500000000000007 16.500000000000004 7 20.500000000000004 447.50000000000006 589.50000000000011 33.500000000000007 9.5000000000000018
decision_type=9 2 2 2 2 1 2 9 2 2 2 9 2 9 2 2 1 1 2 2 2 1 2 2 2 2 2
left_child=1 4 10 6 7 19 -4 8 -1 -5 11 -3 14 -12 15 -7 -6 -9 -18 21 -16 26 -23 25 -25 -14 -2
right_child=5 2 3 9 16 12 -8 17 -10 -11 13 -13 23 -15 20 -17 18 -19 -20 -21 -22 22 -24 24 -26 -27 -28
leaf_value=0.0013170230486842657 -0.019651638856486135 0.0049891704557024274 0.0037258362906435532 -0.0081115357120278252 -0.01651548840741281 -0.01555680645781911 0.00093574146562265959 -0.01661460049017157 -0.0013108683934665961 -0.0015401742920347866 0.0069715114711194964 -0.0032893327721317586 -0.012128761306552063 0.0045660720514643875 -0.014291040267585929 -0.010582423714054765 -0.0094939413945420211 -0.0083639306959052209 -0.0058084852509979502 -0.01373611592854437 -0.018284695275613185 -0.017958479832584109 -0.010486632678128016 0.0012007758969862056 -0.0077353037137393174 -0.0049911053213627671 -0.019072419223294591
leaf_weight=1701.2838434278965 614.98702347278595 1489.4915928542614 1958.2128189057112 191.7923170030117 7.9970450401306152 62.45722770690918 3424.7887803912163 12.990942418575287 1630.9065400213003 146.67627458274364 2027.9797638207674 43.455154821276665 6.9880839288234737 409.15393561124802 31.974539458751678 152.17110195755959 46.09448067843914 98.179919496178627 356.52599093317986 10.239223495125769 40.742266252636909 65.236964672803879 4.9939347505569449 7.6792267709970456 5.9779176861047745 12.676838129758833 583.22244501113892
leaf_count=6874 2460 6046 7935 771 32 250 13844 52 6583 591 8251 175 28 1660 128 610 185 394 1433 41 163 261 20 31 24 51 2333
internal_value=9.11877e-07 0.00210743 0.00331703 0.00152374 -0.000928612 -0.0177417 0.0019509 -0.000271619 3.0437e-05 -0.00526677 0.00590116 0.00476493 -0.0123927 0.00661543 -0.0131789 -0.0120346 -0.0064356 -0.00856649 -0.0062329 -0.019221 -0.0165424 -0.0192645 -0.0174414 -0.00558333 -0.00263745 -0.00757838 -0.0193705
internal_weight=15144.9 13545.5 9691.55 5721.47 3853.98 1599.35 5383 3443.36 3332.19 338.469 3970.08 1532.95 320.667 2437.13 287.345 214.628 410.618 111.171 402.62 1278.68 72.7168 1268.44 70.2309 33.3221 13.6571 19.6649 1198.21
internal_count=61226 54826 39273 23141 15553 6400 21779 13903 13457 1362 16132 6221 1285 9911 1151 860 1650 446 1618 5115 291 5074 281 134 55 79 4793
cat_boundaries=0 1 2 3 4 5 6 7 8
cat_threshold=521 4 513 513 512 4 4 1
is_linear=0
shrinkage=0.01


Tree=10
num_leaves=28
num_cat=8
split_feature=10 0 2 2 2 5 10 1 0 7 0 10 0 10 1 0 5 1 2 0 2 3 0 2 0 0 0
split_gain=5554.71 487.494 440.783 162.63 136.534 116.977 84.6574 80.4426 58.609 57.2369 31.5616 27.2062 16.6275 13.6626 10.5651 10.5031 7.99792 7.59969 5.31172 2.6688 2.47672 2.04528 2.19427 1.83441 2.97025 1.75676 0.604435
threshold=0 14.500000000000002 16.500000000000004 22.500000000000004 22.500000000000004 1 2 391.50000000000006 38.500000000000007 3 24.500000000000004 4 29.500000000000004 5 545.50000000000011 3.5000000000000004 6 279.50000000000006 31.500000000000004 42.500000000000007 16.500000000000004 7 20.500000000000004 18.500000000000004 43.500000000000007 33.500000000000007 12.500000000000002
decision_type=9 2 2 2 2 1 9 2 2 1 2 9 2 9 2 2 1 2 2 2 2 1 2 2 2 2 2
left_child=1 4 10 7 6 19 9 -4 -5 -1 11 -3 14 -12 15 -7 -6 -8 -18 21 -16 26 -23 25 -25 -14 -2
right_child=5 2 3 8 16 12 17 -9 -10 -11 13 -13 23 -15 20 -17 18 -19 -20 -21 -22 22 -24 24 -26 -27 -28
leaf_value=0.0034744322251682707 -0.01937715948584063 0.0049712435294817486 0.003759513921856117 -0.0033021890000094639 -0.016346238642236076 -0.015395887236868544 -0.0021732705514743021 0.0010783602842999417 0.0012443507724882281 -0.00046542194591263553 0.0069663487529611169 -0.0025974041210526985 -0.012394662608899201 0.0043832579293041837 -0.014143156340511149 -0.010471731314406225 -0.0059475448609835483 -0.010222365379463954 -0.012354459741414459 -0.013593313053077368 -0.018098892796508996 -0.017776017281597216 -0.010378367657747536 -0.0063335817373175764 0.0022682773631296956 -0.00529957582079724 -0.018766426178085899
leaf_weight=411.81070019304752 802.98011535406113 1558.8515554070473 2201.4319285601377 802.16067418456078 7.9990382194519043 62.478823214769363 13.703624248504637 2278.6953374147415 438.14598417282104 2920.3571419119835 1966.9407749176025 47.161924093961716 5.9870896190404919 394.1495418548584 31.985724210739136 152.24148631095886 389.07844729721546 97.517074346542358 13.706999719142912 10.243302181363104 40.748880043625832 65.247464701533318 4.995562255382537 10.700769737362863 6.2092631459236136 10.434696674346922 395.24825665354729
leaf_count=1666 3212 6332 8925 3235 32 250 55 9212 1769 11791 8010 190 24 1600 128 610 1563 391 55 41 163 261 20 43 25 42 1581
internal_value=9.89598e-07 0.00208704 0.00328537 0.00150878 -0.000919288 -0.0175626 -0.000268903 0.00239604 -0.00169529 3.01302e-05 0.00584689 0.00476314 -0.0122643 0.00658363 -0.0130422 -0.0119092 -0.00636869 -0.0084774 -0.00616806 -0.0190283 -0.0163731 -0.0190714 -0.0172641 -0.00552617 -0.00311589 -0.00794721 -0.0191765
internal_weight=15141.2 13541.7 9687.54 5720.43 3854.17 1599.5 3443.39 4480.13 1240.31 3332.17 3967.1 1606.01 320.787 2361.09 287.455 214.72 410.784 111.221 402.785 1278.71 72.7346 1268.47 70.243 33.3318 16.91 16.4218 1198.23
internal_count=61226 54826 39273 23141 15553 6400 13903 18137 5004 13457 16132 6522 1285 9610 1151 860 1650 446 1618 5115 291 5074 281 134 68 66 4793
cat_boundaries=0 1 2 3 4 5 6 7 8
cat_threshold=521 4 513 8 513 512 4 1
is_linear=0
shrinkage=0.01


Tree=11
num_leaves=28
num_cat=8
split_feature=10 0 2 2 2 5 1 10 1 0 0 10 0 10 1 0 5 5 1 0 2 3 1 1 1 0 0
split_gain=5444.76 478.074 432.69 161.246 133.761 114.887 93.558 82.943 56.3946 34.5285 31.042 29.9584 16.2894 10.8753 10.3662 10.2981 7.83932 7.4665 5.30766 2.6206 2.42956 2.00939 2.1885 1.80919 2.67181 2.05898 0.596993
threshold=0 14.500000000000002 16.500000000000004 25.500000000000004 22.500000000000004 1 363.50000000000006 2 390.50000000000006 38.500000000000007 23.500000000000004 3 29.500000000000004 4 545.50000000000011 3.5000000000000004 5 6 328.50000000000006 42.500000000000007 16.500000000000004 7 310.50000000000006 447.50000000000006 589.50000000000011 33.500000000000007 9.5000000000000018
decision_type=9 2 2 2 2 1 2 9 2 2 2 9 2 9 2 2 1 1 2 2 2 1 2 2 2 2 2
left_child=1 4 10 6 7 19 -4 8 -1 -5 11 -3 14 -12 15 -7 -6 -9 -18 21 -16 26 -23 25 -25 -14 -2
right_child=5 2 3 9 16 12 -8 17 -10 -11 13 -13 23 -15 20 -17 18 -19 -20 -21 -22 22 -24 24 -26 -27 -28
leaf_value=0.0013042053203152772 -0.019265248129761089 0.0048962516600479303 0.0036598583698139926 -0.007991180093773342 -0.016180944901930221 -0.015238510912253804 0.00091815350382021027 -0.016343973509733333 -0.0012982324813635858 -0.0015371773150455526 0.006846110963180504 -0.0032402159842243 -0.011897864096462143 0.0044839291890495748 -0.0139982653367318 -0.010362819227922324 -0.0093298631355243945 -0.0081809201338226382 -0.0056841310091367793 -0.01345330328113202 -0.017917971805993967 -0.010219302721875987 -0.017602312335466073 0.0012301797563263395 -0.0075959290034222802 -0.0049006207264307459 -0.01869398054883457
leaf_weight=1701.0545838326216 614.86312329769135 1487.6660501360893 1956.6430876404047 191.94046501815319 7.9999375343322754 62.492756098508835 3424.1352858394384 12.997596859931946 1631.0910039246082 146.67997334897518 2024.2328389436007 43.475784361362457 6.9935947209596661 408.71383607387543 31.99358306825161 152.30279666185379 46.133329123258591 98.269601419568062 356.80867783725262 10.246388688683508 40.748719155788422 4.997307449579238 65.247095197439194 7.6812861263751966 5.9823465049266815 12.68490695953369 583.16247814893723
leaf_count=6874 2460 6046 7935 771 32 250 13844 52 6583 591 8251 175 28 1660 128 610 185 394 1433 41 163 20 261 31 24 51 2333
internal_value=1.08974e-06 0.0020669 0.00325403 0.00149397 -0.000909981 -0.0173882 0.00191532 -0.000266125 2.99176e-05 -0.00519846 0.0057932 0.00467538 -0.0121383 0.00649627 -0.0129081 -0.011786 -0.00630262 -0.00838948 -0.00610402 -0.018841 -0.0162078 -0.0188837 -0.0170913 -0.0054695 -0.00256097 -0.00743821 -0.018988
internal_weight=15137.2 13537.8 9683.49 5719.4 3854.35 1599.4 5380.78 3443.41 3332.15 338.62 3964.09 1531.14 320.88 2432.95 287.538 214.796 410.942 111.267 402.942 1278.52 72.7423 1268.27 70.2444 33.3421 13.6636 19.6785 1198.03
internal_count=61226 54826 39273 23141 15553 6400 21779 13903 13457 1362 16132 6221 1285 9911 1151 860 1650 446 1618 5115 291 5074 281 134 55 79 4793
cat_boundaries=0 1 2 3 4 5 6 7 8
cat_threshold=521 4 513 513 512 4 4 1
is_linear=0
shrinkage=0.01


Tree=12
num_leaves=28
num_cat=8
split_feature=10 0 2 2 2 5 1 10 7 0 0 10 0 10 1 0 5 1 2 0 2 3 0 2 0 0 0
split_gain=5337.74 468.856 424.752 158.027 131.045 112.899 91.7677 81.2669 56.1743 33.81 30.5131 29.4366 15.9605 10.6832 10.1759 10.1012 7.68594 7.43231 5.20063 2.57517 2.38492 1.97589 2.14502 1.78836 2.89356 1.68653 0.586692
threshold=0 14.500000000000002 16.500000000000004 25.500000000000004 22.500000000000004 1 363.50000000000006 2 3 38.500000000000007 23.500000000000004 4 29.500000000000004 5 545.50000000000011 3.5000000000000004 6 279.50000000000006 31.500000000000004 42.500000000000007 16.500000000000004 7 20.500000000000004 18.500000000000004 43.500000000000007 33.500000000000007 12.500000000000002
decision_type=9 2 2 2 2 1 2 9 1 2 2 9 2 9 2 2 1 2 2 2 2 1 2 2 2 2 2
left_child=1 4 10 6 7 19 -4 8 -1 -5 11 -3 14 -12 15 -7 -6 -9 -18 21 -16 26 -23 25 -25 -14 -2
right_child=5 2 3 9 16 12 -8 17 -10 -11 13 -13 23 -15 20 -17 18 -19 -20 -21 -22 22 -24 24 -26 -27 -28
leaf_value=0.0034424973036807612 -0.019002824578283818 0.0048506209610308946 0.003624828723701394 -0.0079072783176156319 -0.016019460747600321 -0.015084546964695812 0.00090905847410468078 -0.0020625512421453968 -0.00046121738825893546 -0.0015216060544135765 0.0067844086681310587 -0.0032132066748048159 -0.012161980677471406 0.004442586669658681 -0.01385626667003613 -0.010255638502467156 -0.0058226368633146029 -0.010020237598500594 -0.012159275609272688 -0.013315995746239657 -0.01774173640089521 -0.017428944886256566 -0.010115207413278817 -0.0062086721050084951 0.0022803565260690185 -0.0052061756910450722 -0.018399781539630233
leaf_weight=411.65919168293476 802.52936613559723 1486.7428731024265 1955.8006300479174 192.03683303296566 7.9997754096984863 62.499258667230606 3423.8105451017618 13.711551353335379 2920.4614144265652 146.69907483458519 2022.3168060481548 43.486825376749039 5.9917640537023571 408.48630733788013 31.998213335871696 152.35527229309082 389.36847724020481 97.594687402248383 13.719841763377188 10.248512953519819 40.741985097527504 65.237202659249306 4.9982335567474356 10.707511082291605 6.2095406949520102 10.441389590501784 395.07853952050209
leaf_count=1666 3212 6046 7935 771 32 250 13844 55 11791 591 8251 175 24 1660 128 610 1563 391 55 41 163 261 20 43 25 42 1581
internal_value=1.16092e-06 0.00204692 0.003223 0.0014793 -0.000900852 -0.0172182 0.00189658 -0.000263465 2.96162e-05 -0.00514474 0.00574004 0.00463151 -0.0120146 0.00643747 -0.0127766 -0.011665 -0.00623741 -0.00830298 -0.0060408 -0.0186589 -0.0160463 -0.0187013 -0.0169227 -0.00541379 -0.00303359 -0.00780321 -0.0188047
internal_weight=15132.9 13533.9 9679.38 5718.35 3854.51 1599.04 5379.61 3443.43 3332.12 338.736 3961.03 1530.23 320.945 2430.8 287.595 214.855 411.088 111.306 403.088 1278.09 72.7402 1267.84 70.2354 33.3502 16.9171 16.4332 1197.61
internal_count=61226 54826 39273 23141 15553 6400 21779 13903 13457 1362 16132 6221 1285 9911 1151 860 1650 446 1618 5115 291 5074 281 134 68 66 4793
cat_boundaries=0 1 2 3 4 5 6 7 8
cat_threshold=521 4 513 8 513 512 4 1
is_linear=0
shrinkage=0.01


Tree=13
num_leaves=28
num_cat=8
split_feature=10 0 2 2 2 5 10 1 0 1 0 10 0 10 1 0 5 5 1 0 2 3 1 1 1 0 0
split_gain=5233.56 459.801 416.967 156.025 128.391 111.011 79.6284 76.4889 56.685 55.3071 30.0138 25.7795 15.6436 13.0103 9.99367 9.91183 7.53756 7.31817 5.19976 2.53234 2.34265 1.94458 2.14088 1.7638 2.60799 1.97852 0.580322
threshold=0 14.500000000000002 16.500000000000004 22.500000000000004 22.500000000000004 1 2 391.50000000000006 38.500000000000007 390.50000000000006 24.500000000000004 3 29.500000000000004 4 545.50000000000011 3.5000000000000004 5 6 328.50000000000006 42.500000000000007 16.500000000000004 7 310.50000000000006 447.50000000000006 589.50000000000011 33.500000000000007 9.5000000000000018
decision_type=9 2 2 2 2 1 9 2 2 2 2 9 2 9 2 2 1 1 2 2 2 1 2 2 2 2 2
left_child=1 4 10 7 6 19 9 -4 -5 -1 11 -3 14 -12 15 -7 -6 -8 -18 21 -16 26 -23 25 -25 -14 -2
right_child=5 2 3 8 16 12 17 -9 -10 -11 13 -13 23 -15 20 -17 18 -19 -20 -21 -22 22 -24 24 -26 -27 -28
leaf_value=0.001291514234198092 -0.018900422763137019 0.0048328039035307226 0.0036650522436398442 -0.003252880431132575 -0.01586163966694179 -0.014933870340736507 -0.016083749400268608 0.0010496253488396898 0.0012185594814389637 -0.0012857205388555504 0.0067809020219265961 -0.0025314089261996289 -0.011674388185681679 0.0042604226906489467 -0.013717058984788014 -0.010150142406235289 -0.0091700736294433056 -0.0080031972622141775 -0.0055628783510797185 -0.013181297091389611 -0.017569997461599835 -0.0099614447738908922 -0.01726383984113132 0.0012584006208928669 -0.0074600710635635845 -0.0048121672162534023 -0.018335943184791294
leaf_weight=1700.8249860107899 614.28731739521027 1555.9065802395344 2198.8519627600908 802.40237805247307 7.9985833168029785 62.498548775911331 12.999756515026093 2278.0106371641159 438.02062012255192 1631.2710965871811 1961.3453771173954 47.189841717481613 6.9973099827766445 393.49844455718994 31.999708786606789 152.39917533099651 46.166000217199326 98.342469111084938 357.06067645549774 10.249702468514441 40.728879109025002 4.9989398121833792 65.217409729957581 7.6831644177436811 5.9861081540584564 12.692285418510435 582.69445304572582
leaf_count=6874 2460 6332 8925 3235 32 250 52 9212 1769 6583 8010 190 28 1600 128 610 185 394 1433 41 163 20 261 31 24 51 2333
internal_value=1.24898e-06 0.00202718 0.00319229 0.00146479 -0.00089174 -0.0170525 -0.000260745 0.00233444 -0.00167311 2.9407e-05 0.00568743 0.00462976 -0.0118931 0.00640704 -0.0126475 -0.011546 -0.00617302 -0.00821758 -0.00597835 -0.0184817 -0.0158885 -0.0185237 -0.0167582 -0.00535855 -0.00248647 -0.00730166 -0.0186265
internal_weight=15128.3 13529.9 9675.23 5717.29 3854.66 1598.43 3443.44 4476.86 1240.42 3332.1 3957.94 1603.1 320.985 2354.84 287.626 214.898 411.225 111.342 403.227 1277.45 72.7286 1267.2 70.2163 33.3589 13.6693 19.6896 1196.98
internal_count=61226 54826 39273 23141 15553 6400 13903 18137 5004 13457 16132 6522 1285 9610 1151 860 1650 446 1618 5115 291 5074 281 134 55 79 4793
cat_boundaries=0 1 2 3 4 5 6 7 8
cat_threshold=521 4 513 513 512 4 4 1
is_linear=0
shrinkage=0.01


Tree=14
num_leaves=29
num_cat=9
split_feature=10 0 2 2 2 5 1 10 7 0 0 10 2 0 1 10 1 0 5 5 0 2 3 1 2 0 0 0
split_gain=5132.1 450.94 409.335 153.573 125.948 109.213 88.5583 76.7705 53.5211 32.6249 29.5104 28.4625 22.9237 15.335 12.7962 10.2836 9.81904 9.72972 8.46711 7.39392 2.49194 2.30261 1.91537 2.10038 1.74395 2.81923 1.62013 0.571919
threshold=0 14.500000000000002 16.500000000000004 25.500000000000004 20.500000000000004 1 363.50000000000006 2 3 38.500000000000007 23.500000000000004 4 22.500000000000004 29.500000000000004 197.00000000000003 5 545.50000000000011 3.5000000000000004 6 7 42.500000000000007 16.500000000000004 8 310.50000000000006 18.500000000000004 43.500000000000007 33.500000000000007 12.500000000000002
decision_type=9 2 2 2 2 1 2 9 1 2 2 9 2 2 2 9 2 2 1 1 2 2 1 2 2 2 2 2
left_child=1 4 10 6 7 20 -4 8 -1 -5 11 -3 14 16 -6 -12 17 -7 -9 -14 22 -18 27 -24 26 -26 -15 -2
right_child=5 2 3 9 12 13 -8 18 -10 -11 15 -13 19 24 -16 -17 21 -19 -20 -21 -22 -23 23 -25 25 -27 -28 -29
leaf_value=0.0038433946163449802 -0.01864901197632593 0.0047604590851612321 0.0035606537929844194 -0.0077905916348496689 0.010780276856449529 -0.014786362408403895 0.00089200159372769398 -0.01656798395449325 -0.00017890897660773105 -0.0015185369140397603 0.0066629422249542408 -0.0031653646773413032 -0.01570734652824278 -0.011936873882716619 -0.002915509021031638 0.0043628271247505871 -0.013580546492046651 -0.010046283616892913 -0.0077064762995265428 -0.0059166963848873381 -0.0130491210430644 -0.017402577178568256 -0.0098612895165412114 -0.017098865190976181 -0.0060868618144657221 0.0022915652121312854 -0.0051148399961275679 -0.018052492416320412
leaf_weight=368.75726214051247 801.51030361652374 1484.8673290908337 1954.2037213146687 192.16127966344357 6.9264904260635367 62.490842491388321 3423.1630234569311 12.499024301767349 2608.9386229366064 146.70281763374805 2018.405267611146 43.505848571658134 7.996391773223877 5.9948624968528774 354.18913702666759 408.03586922585964 31.998162373900414 152.43474358320236 92.129112079739571 403.35526263713837 10.249985337257383 40.709592804312706 4.9992124736309043 65.188318178057671 10.713235899806024 6.2097390890121451 10.447504460811613 394.64331543445587
leaf_count=1493 3212 6046 7935 771 28 250 13844 50 10533 591 8251 175 32 24 1430 1660 128 610 369 1618 41 163 20 261 43 25 42 1581
internal_value=1.31967e-06 0.00200761 0.00316189 0.00145041 -0.000882802 -0.016891 0.00186201 2.17652e-05 0.000330074 -0.00507821 0.00563537 0.00454463 -0.00449353 -0.0117739 -0.00265004 0.006322 -0.0125209 -0.0114291 -0.00800915 -0.00610945 -0.0183092 -0.0157343 -0.018351 -0.0165976 -0.00530422 -0.00295338 -0.00766296 -0.018453
internal_weight=15123.4 13525.8 9671.05 5716.23 3854.79 1597.59 5377.37 3082.32 2977.7 338.864 3954.81 1528.37 772.467 320.999 361.116 2426.44 287.633 214.926 104.628 411.352 1276.59 72.7078 1266.34 70.1875 33.3653 16.923 16.4424 1196.15
internal_count=61226 54826 39273 23141 15553 6400 21779 12445 12026 1362 16132 6221 3108 1285 1458 9911 1151 860 419 1650 5115 291 5074 281 134 68 66 4793
cat_boundaries=0 1 2 3 4 5 6 7 8 9
cat_threshold=521 4 513 8 513 512 4 4 1
is_linear=0
shrinkage=0.01


Tree=15
num_leaves=29
num_cat=9
split_feature=10 0 2 2 2 5 10 1 0 7 0 10 2 0 10 1 1 0 5 5 0 2 3 0 1 1 0 0
split_gain=5033.27 442.23 401.846 151.317 123.407 107.504 75.2329 73.8753 55.1851 52.5058 29.0252 24.8726 22.4588 15.0374 12.5883 12.5491 9.6516 9.55446 8.30581 7.25491 2.45384 2.26466 1.88808 2.0976 1.71996 2.54604 1.90224 0.566478
threshold=0 14.500000000000002 16.500000000000004 22.500000000000004 20.500000000000004 1 2 391.50000000000006 38.500000000000007 3 24.500000000000004 4 22.500000000000004 29.500000000000004 5 197.00000000000003 545.50000000000011 3.5000000000000004 6 7 42.500000000000007 16.500000000000004 8 20.500000000000004 447.50000000000006 589.50000000000011 33.500000000000007 9.5000000000000018
decision_type=9 2 2 2 2 1 9 2 2 1 2 9 2 2 9 2 2 2 1 1 2 2 1 2 2 2 2 2
left_child=1 4 10 7 6 20 9 -4 -5 -1 11 -3 15 16 -12 -6 17 -7 -8 -14 22 -18 27 -24 26 -26 -15 -2
right_child=5 2 3 8 12 13 18 -9 -10 -11 14 -13 19 24 -16 -17 21 -19 -20 -21 -22 -23 23 -25 25 -27 -28 -29
leaf_value=0.0038075580587345094 -0.018555434841381023 0.0047429207183715787 0.0036014499668407941 -0.0032119297603792497 0.010684624781265653 -0.014641910194072674 -0.016405527528921011 0.0010304194337650418 0.0012000126930835464 -0.00017712402733902359 0.0066603277837301994 -0.0024884863715150867 -0.015556449931495051 -0.011457922067157915 0.0041809290230216825 -0.0028855520619508134 -0.013446638599338895 -0.0099440169743938468 -0.0076274119196968592 -0.0058557394037184775 -0.012919385099089204 -0.017239308889963004 -0.016941696411008966 -0.0097126003375028989 0.0012854741841925945 -0.0073275892548136648 -0.004725682589616054 -0.017996685678343904
leaf_weight=368.60059867799282 613.28676849603653 1553.9043211489916 2197.0567318797112 802.61965842545033 6.918652892112731 62.476352155208588 12.496579200029373 2277.5477644205093 437.93183189630508 2608.9834437221289 1957.482345700264 47.207475528120995 7.993232250213623 6.9993239939212826 393.0588960647583 354.28711900115013 31.993667632341385 152.46223622560501 92.153139308094978 403.47787919640541 10.249387830495833 40.684313237667084 65.150257438421249 4.9989412426948538 7.684870317578314 5.989235445857048 12.69900433719158 581.84283696115017
leaf_count=1493 2460 6332 8925 3235 28 250 50 9212 1769 10533 8010 190 32 28 1600 1430 128 610 369 1618 41 163 261 20 31 24 51 2333
internal_value=1.40698e-06 0.00198827 0.00313178 0.00143618 -0.000873857 -0.0167334 2.16583e-05 0.00229303 -0.00165365 0.000326906 0.00558383 0.00454316 -0.00444739 -0.0116566 0.00629227 -0.00262286 -0.0123965 -0.0113142 -0.00792765 -0.00604662 -0.0181413 -0.0155835 -0.0181828 -0.0164408 -0.00525036 -0.0024139 -0.00716859 -0.0182842
internal_weight=15118.2 13521.7 9666.81 5715.16 3854.91 1596.52 3082.23 4474.6 1240.55 2977.58 3951.65 1601.11 772.677 320.989 2350.54 361.206 287.617 214.939 104.65 411.471 1275.53 72.678 1265.28 70.1492 33.3724 13.6741 19.6983 1195.13
internal_count=61226 54826 39273 23141 15553 6400 12445 18137 5004 12026 16132 6522 3108 1285 9610 1458 1151 860 419 1650 5115 291 5074 281 134 55 79 4793
cat_boundaries=0 1 2 3 4 5 6 7 8 9
cat_threshold=521 4 513 8 513 512 4 4 1
is_linear=0
shrinkage=0.01


Tree=16
num_leaves=29
num_cat=9
split_feature=10 0 2 2 2 5 1 10 7 0 0 10 2 0 1 10 1 0 5 5 0 2 3 1 2 0 0 0
split_gain=4936.97 433.691 394.505 149.249 120.921 105.875 85.4614 73.7291 51.5099 31.4837 28.5458 27.5217 22.0045 14.7474 12.3072 9.90154 9.49095 9.38567 8.15024 7.12021 2.4179 2.22868 1.86263 2.0598 1.7011 2.74716 1.55727 0.559754
threshold=0 14.500000000000002 16.500000000000004 25.500000000000004 20.500000000000004 1 363.50000000000006 2 3 38.500000000000007 23.500000000000004 4 22.500000000000004 29.500000000000004 197.00000000000003 5 545.50000000000011 3.5000000000000004 6 7 42.500000000000007 16.500000000000004 8 310.50000000000006 18.500000000000004 43.500000000000007 33.500000000000007 12.500000000000002
decision_type=9 2 2 2 2 1 2 9 1 2 2 9 2 2 2 9 2 2 1 1 2 2 1 2 2 2 2 2
left_child=1 4 10 6 7 20 -4 8 -1 -5 11 -3 14 16 -6 -12 17 -7 -9 -14 22 -18 27 -24 26 -26 -15 -2
right_child=5 2 3 9 12 13 -8 18 -10 -11 15 -13 19 24 -16 -17 21 -19 -20 -21 -22 -23 23 -25 25 -27 -28 -29
leaf_value=0.0037720682699301971 -0.018314099832291084 0.0046720748171282765 0.0034976475003549602 -0.0076760974375440598 0.010590316544934539 -0.014500405111745183 0.00087528299130402163 -0.016246840157134585 -0.00017535595564167821 -0.0015153104601646262 0.0065439892342681136 -0.0031183315682454154 -0.015408824776579944 -0.011718921669870081 -0.0028559220679190869 0.0042845973095225467 -0.013315247991162469 -0.0098433030029492358 -0.0075494004480256187 -0.0057955298488214582 -0.012792010771698222 -0.01708002890295069 -0.0096161192360419753 -0.01678448449218203 -0.0059680347506441758 0.0023019303135242033 -0.0050255046857605266 -0.01772304533776186
leaf_weight=368.44281044602394 799.95727467536926 1482.9625050425529 1952.5912313014269 192.2723648250103 6.910502314567565 62.455278933048248 3422.5175560414791 12.492469757795334 2609.0277185887098 146.70675417780876 2014.3959120512009 43.523880839347839 7.989133358001709 5.9964670985937145 354.38266368210316 407.57947340607643 31.986312299966812 152.48187583684921 92.174237117171288 403.59232711791992 10.247936829924582 40.653229355812073 4.9986062347888938 65.103112503886223 10.717996016144754 6.2098616063594809 10.453067556023596 393.95858077704906
leaf_count=1493 3212 6046 7935 771 28 250 13844 50 10533 591 8251 175 32 24 1430 1660 128 610 369 1618 41 163 20 261 43 25 42 1581
internal_value=1.497e-06 0.00196912 0.00310198 0.00142209 -0.000865007 -0.0165795 0.00182808 2.15521e-05 0.000323769 -0.00501272 0.00553282 0.00445947 -0.0044018 -0.0115415 -0.00259597 0.00620889 -0.0122743 -0.0112012 -0.00784729 -0.00598456 -0.0179778 -0.015436 -0.0180191 -0.0162876 -0.00519737 -0.00287518 -0.0075263 -0.0181199
internal_weight=15112.8 13517.6 9662.55 5714.09 3855.01 1595.22 5375.11 3082.14 2977.47 338.979 3948.46 1526.49 772.875 320.954 361.293 2421.98 287.577 214.937 104.667 411.581 1274.27 72.6395 1264.02 70.1017 33.3774 16.9279 16.4495 1193.92
internal_count=61226 54826 39273 23141 15553 6400 21779 12445 12026 1362 16132 6221 3108 1285 1458 9911 1151 860 419 1650 5115 291 5074 281 134 68 66 4793
cat_boundaries=0 1 2 3 4 5 6 7 8 9
cat_threshold=521 4 513 8 513 512 4 4 1
is_linear=0
shrinkage=0.01


Tree=17
num_leaves=29
num_cat=9
split_feature=10 0 2 2 2 5 10 1 0 7 0 10 2 0 10 1 3 0 5 2 1 0 3 0 1 1 0 0
split_gain=4843.11 425.318 387.301 146.751 118.486 104.324 72.2581 71.3529 53.7279 50.5331 28.074 23.9975 21.5606 14.4674 12.1837 12.0704 9.43666 10.7841 8.00012 7.09643 6.79173 2.38399 1.83889 2.05829 1.6776 2.4859 1.82985 0.555149
threshold=0 14.500000000000002 16.500000000000004 22.500000000000004 20.500000000000004 1 2 391.50000000000006 38.500000000000007 3 24.500000000000004 4 22.500000000000004 29.500000000000004 5 197.00000000000003 6 3.5000000000000004 7 30.500000000000004 550.50000000000011 42.500000000000007 8 20.500000000000004 447.50000000000006 589.50000000000011 33.500000000000007 9.5000000000000018
decision_type=9 2 2 2 2 1 9 2 2 1 2 9 2 2 9 2 1 2 1 2 2 2 1 2 2 2 2 2
left_child=1 4 10 7 6 21 9 -4 -5 -1 11 -3 15 16 -12 -6 20 -18 -8 -14 -7 22 27 -24 26 -26 -15 -2
right_child=5 2 3 8 12 13 18 -9 -10 -11 14 -13 19 24 -16 -17 17 -19 -20 -21 -22 -23 23 -25 25 -27 -28 -29
leaf_value=0.0037369207620059947 -0.018228739655938426 0.0046548035982580376 0.003538993335681907 -0.0031715237630071838 0.010497318708220592 -0.011905629016114794 -0.016091779177251183 0.001011567807492182 0.0011818497288011167 -0.00017360650022597141 0.0065422374564928299 -0.0024462735852659213 -0.0056591289525111848 -0.011248087275803854 0.0041029499768085835 -0.0028266161833717901 -0.015781689371941722 -0.0043529195003096915 -0.0074724197368780543 -0.012617173996949929 -0.015785466103188314 -0.012666920441829644 -0.016634672946272536 -0.0094720589563849523 0.0013114351083121367 -0.0071983504192228457 -0.0046411064436636413 -0.017674752072429495
leaf_weight=368.283965036273 611.88720971345901 1551.8724650144577 2195.2465408444405 802.82184761762619 6.9020491838455191 183.68256448209286 12.48674663901329 2277.0894215703011 437.84335306286812 2609.0715225934982 1953.5276471078396 47.22414955496788 396.19819694757462 6.999727442860606 392.61391162872314 354.47580270469189 11.733079001307486 29.240499317646027 92.192484006285667 15.484758108854292 62.858267784118652 10.245658606290815 65.047885119915009 4.9974158704280844 7.6864123940467817 5.99176025390625 12.705094903707502 580.6309711933136
leaf_count=1493 2460 6332 8925 3235 28 735 50 9212 1769 10533 8010 190 1588 28 1600 1430 47 117 369 62 252 41 261 20 31 24 51 2333
internal_value=1.57815e-06 0.00195017 0.00307247 0.00140814 -0.000856251 -0.0164294 2.14451e-05 0.00225238 -0.00163437 0.000320661 0.0054823 0.00445828 -0.00435674 -0.0114283 0.00617984 -0.00256937 -0.0121544 -0.00765004 -0.00776806 -0.00592327 -0.0128989 -0.0178185 -0.0178596 -0.0161379 -0.00514483 -0.00234319 -0.00703885 -0.0179598
internal_weight=15107 13513.3 9658.24 5713 3855.1 1593.71 3082.03 4472.34 1240.67 2977.36 3945.24 1599.1 773.061 320.897 2346.14 361.378 287.514 40.9736 104.679 411.683 246.541 1272.81 1262.56 70.0453 33.383 13.6782 19.7048 1192.52
internal_count=61226 54826 39273 23141 15553 6400 12445 18137 5004 12026 16132 6522 3108 1285 9610 1458 1151 164 419 1650 987 5115 5074 281 134 55 79 4793
cat_boundaries=0 1 2 3 4 5 6 7 8 9
cat_threshold=521 4 513 8 513 512 1 4 1
is_linear=0
shrinkage=0.01


Tree=18
num_leaves=29
num_cat=10
split_feature=10 0 2 2 2 5 1 10 7 0 0 10 2 0 1 10 3 0 5 5 1 0 3 0 2 2 0 0
split_gain=4751.59 417.109 380.237 145.051 116.102 102.853 82.4731 70.8191 49.575 30.3846 27.6174 26.6129 21.1259 14.1932 11.8385 9.53595 9.25254 10.5826 7.85518 6.97911 6.68822 2.35198 1.81679 2.02292 1.65972 2.70399 1.49769 0.549919
threshold=0 14.500000000000002 16.500000000000004 25.500000000000004 20.500000000000004 1 363.50000000000006 2 3 38.500000000000007 23.500000000000004 4 22.500000000000004 29.500000000000004 197.00000000000003 5 6 3.5000000000000004 7 8 550.50000000000011 42.500000000000007 9 20.500000000000004 18.500000000000004 26.500000000000004 33.500000000000007 12.500000000000002
decision_type=9 2 2 2 2 1 2 9 1 2 2 9 2 2 2 9 1 2 1 1 2 2 1 2 2 2 2 2
left_child=1 4 10 6 7 21 -4 8 -1 -5 11 -3 14 16 -6 -12 20 -18 -9 -14 -7 22 27 -24 26 -26 -15 -2
right_child=5 2 3 9 12 13 -8 18 -10 -11 15 -13 19 24 -16 -17 17 -19 -20 -21 -22 -23 23 -25 25 -27 -28 -29
leaf_value=0.0037021117369275261 -0.017996634656536632 0.0045854210545841542 0.0034357850979819565 -0.0075637283940591573 0.010405595156591433 -0.011788031268456844 0.0008588958784285694 -0.01594021016663523 -0.00017187420144664937 -0.0015119335883739861 0.0064274671079902843 -0.0030720934530168434 -0.015197642975532329 -0.011507732936831619 -0.0027976294843120183 0.0042078629408657652 -0.015634163472706207 -0.0043093044470023222 -0.0073964467822719383 -0.0056756832510135623 -0.015639753460835539 -0.012544041829046884 -0.016484651538132392 -0.0093790351430165595 -0.00013430761558840749 -0.00899457271690687 -0.0049381095396560225 -0.017410073181349666
leaf_weight=368.124117359519 797.90288585424423 1481.0316442847252 1950.9651542454958 192.37057104706764 6.8933042287826529 183.65993858873844 3421.8746975064278 12.479458957910538 2609.114930793643 146.71085804700851 2010.2972704172134 43.540961295366287 7.9814519733190536 5.9966574013233211 354.56660069525242 407.11778283119202 11.725393354892729 29.241077184677124 92.207965672016144 403.79864518344402 62.809708535671234 10.242576986551283 64.983778819441795 4.9965164661407462 11.952565059065821 4.9791882932186118 10.458104163408278 393.03962516784668
leaf_count=1493 3212 6046 7935 771 28 735 13844 50 10533 591 8251 175 32 24 1430 1660 47 117 369 1618 252 41 261 20 48 20 42 1581
internal_value=1.66222e-06 0.0019314 0.00304326 0.00139433 -0.000847586 -0.0162827 0.00179479 2.13383e-05 0.000317584 -0.00494824 0.00543231 0.004376 -0.00431218 -0.0113168 -0.00254307 0.00609807 -0.0120362 -0.00757511 -0.00768991 -0.00586267 -0.0127737 -0.0176633 -0.0177041 -0.0159916 -0.00509314 -0.00279894 -0.00739307 -0.0178039
internal_weight=15101.1 13509.1 9653.91 5711.92 3855.17 1591.99 5372.84 3081.93 2977.24 339.081 3941.99 1524.57 773.24 320.823 361.46 2417.42 287.436 40.9665 104.687 411.78 246.47 1271.17 1260.92 69.9803 33.3865 16.9318 16.4548 1190.94
internal_count=61226 54826 39273 23141 15553 6400 21779 12445 12026 1362 16132 6221 3108 1285 1458 9911 1151 164 419 1650 987 5115 5074 281 134 68 66 4793
cat_boundaries=0 1 2 3 4 5 6 7 8 9 10
cat_threshold=521 4 513 8 513 512 1 4 4 1
is_linear=0
shrinkage=0.01


Tree=19
num_leaves=28
num_cat=9
split_feature=10 0 2 2 2 5 10 1 0 7 0 10 2 0 10 1 1 0 5 2 0 2 3 1 8 1 0
split_gain=4662.34 409.059 373.304 142.322 113.768 101.451 69.4112 68.9183 52.3122 48.6351 27.1584 23.1532 20.7016 13.9272 11.7954 11.6114 9.08903 9.12855 7.71517 6.93721 2.32178 2.22025 1.79618 2.0225 1.64047 4.14555 0.546041
threshold=0 14.500000000000002 16.500000000000004 22.500000000000004 20.500000000000004 1 2 391.50000000000006 38.500000000000007 3 24.500000000000004 4 22.500000000000004 29.500000000000004 5 197.00000000000003 545.50000000000011 3.5000000000000004 6 30.500000000000004 42.500000000000007 16.500000000000004 7 310.50000000000006 8 447.50000000000006 9.5000000000000018
decision_type=9 2 2 2 2 1 9 2 2 1 2 9 2 2 9 2 2 2 1 2 2 2 1 2 9 2 2
left_child=1 4 10 7 6 20 9 -4 -5 -1 11 -3 15 16 -12 -6 17 -7 -8 -14 22 -18 26 -24 -15 -26 -2
right_child=5 2 3 8 12 13 18 -9 -10 -11 14 -13 19 24 -16 -17 21 -19 -20 -21 -22 -23 23 -25 25 -27 -28
leaf_value=0.0036676369798589658 -0.017918938921588155 0.0045684072684536248 0.0034776556434206285 -0.0031316552902327177 0.010315114096337044 -0.014126809069176656 -0.015792004087469187 0.00099306350126769703 0.0011640636033263838 -0.00017015931339560243 0.0064265501657441541 -0.0024047591069587928 -0.0055417619847483507 -0.0094555273883860629 0.0040264503999392839 -0.0027689587459456305 -0.012904129032690972 -0.0095317391343215947 -0.00732146199877613 -0.012420599307401149 -0.012423304935871508 -0.016660225349867167 -0.0092393875342485325 -0.016341655233794564 -0.0069881960700155545 0.0010731965834715658 -0.01736883042222355
leaf_weight=367.963334441185 610.11331111192703 1549.8143624961376 2193.4235203564167 803.00946487486362 6.8842779994010916 62.364934384822845 12.470654338598251 2276.635745882988 437.75524732470512 2609.1577111780643 1949.4895170629025 47.239900752902031 396.37649387121201 6.9763875156641006 392.16411113739014 354.65510143339634 31.942792892456055 152.49089735746384 92.220756635069847 15.488360613584517 10.23871763050556 40.537772312760353 4.9944634139537802 64.912435188889503 16.219931900501255 10.195615440607069 579.08103975653648
leaf_count=1493 2460 6332 8925 3235 28 250 50 9212 1769 10533 8010 190 1588 28 1600 1430 128 610 369 62 41 163 20 261 65 41 2333
internal_value=1.73645e-06 0.00191282 0.00301433 0.00138065 -0.000839014 -0.0161394 2.12313e-05 0.00221246 -0.00161527 0.000314536 0.0053828 0.00437507 -0.00426816 -0.0112072 0.00606966 -0.00251705 -0.0119201 -0.0108702 -0.00761284 -0.00580287 -0.017512 -0.0150187 -0.0175526 -0.0158485 -0.00504228 -0.00383888 -0.0176519
internal_weight=15094.8 13504.7 9649.53 5710.82 3855.22 1590.07 3081.81 4470.06 1240.76 2977.12 3938.71 1597.05 773.404 320.728 2341.65 361.539 287.336 214.856 104.691 411.865 1269.34 72.4806 1259.1 69.9069 33.3919 26.4155 1189.19
internal_count=61226 54826 39273 23141 15553 6400 12445 18137 5004 12026 16132 6522 3108 1285 9610 1458 1151 860 419 1650 5115 291 5074 281 134 106 4793
cat_boundaries=0 1 2 3 4 5 6 7 8 9
cat_threshold=521 4 513 8 513 512 4 1 2
is_linear=0
shrinkage=0.01


Tree=20
num_leaves=29
num_cat=10
split_feature=10 0 2 2 2 5 1 10 7 0 0 10 2 7 1 4 2 1 5 5 0 1 2 0 3 0 0 0
split_gain=4575.29 401.167 366.506 140.975 111.482 100.112 79.5892 68.0336 47.7133 29.3258 26.7233 25.735 20.2862 14.0621 11.3889 9.75671 9.61297 9.29435 7.57983 6.84372 5.79648 4.0989 3.98144 2.29328 1.77704 1.98934 0.625528 0.54215
threshold=0 14.500000000000002 16.500000000000004 25.500000000000004 20.500000000000004 1 363.50000000000006 2 3 38.500000000000007 23.500000000000004 4 22.500000000000004 5 197.00000000000003 6 17.500000000000004 224.50000000000003 7 8 3.5000000000000004 500.50000000000006 23.500000000000004 42.500000000000007 9 20.500000000000004 14.500000000000002 12.500000000000002
decision_type=9 2 2 2 2 1 2 9 1 2 2 9 2 1 2 9 2 2 1 1 2 2 2 2 1 2 2 2
left_child=1 4 10 6 7 23 -4 8 -1 -5 11 -3 14 15 -6 22 20 -12 -9 -14 -15 -17 -7 24 27 -26 -18 -2
right_child=5 2 3 9 12 13 -8 18 -10 -11 17 -13 19 16 -16 21 26 -19 -20 -21 -22 -23 -24 -25 25 -27 -28 -29
leaf_value=0.0036334932297312694 -0.017695303596032094 0.0045004547602033405 0.0033750416531212902 -0.0074534264738707213 0.010225841450439341 -0.00013265219618368337 0.00084283382269202982 -0.015647038565828591 -0.0001684614036384324 -0.0015084105195207042 0.0042879115491593241 -0.0030266324137459806 -0.01499331826684599 -0.014899554241824388 -0.0027405991097006707 -0.01095864164578754 -0.018566491873135221 0.006218413816053093 -0.0072474439750341239 -0.0055587316301700948 -0.010716331520483242 -0.0052242408820455275 -0.0071250575561192624 -0.012304644072067666 -0.016198309157942552 -0.0091495980291255944 -0.015739228704808855 -0.01711234665459882
leaf_weight=367.80166077613831 795.37828540802002 1479.0777198672295 1949.3272187709808 192.45638085901737 6.8749808073043814 35.185436263680458 3421.2346635460854 12.460380405187607 2609.2000957578421 146.71512924134731 286.66220583021641 43.557123839855194 7.971879854798317 58.834311410784721 354.74137426912785 63.455162987112999 32.85308463871479 2126.1071348786354 92.230932354927063 403.97378958761692 83.684862747788429 16.444640308618546 10.718439787626265 10.234104365110396 64.832405507564545 4.993040293455123 19.433140650391579 391.90096078813076
leaf_count=1493 3212 6046 7935 771 28 141 13844 50 10533 591 1178 175 32 236 1430 254 132 8733 369 1618 335 66 43 41 261 20 78 1581
internal_value=1.81544e-06 0.00189443 0.0029857 0.00136711 -0.000830531 -0.0159994 0.00176212 2.11245e-05 0.000311518 -0.00488474 0.00533379 0.00429415 -0.00422462 -0.0110994 -0.00249132 -0.00637192 -0.0131453 0.00598946 -0.00753681 -0.00574374 -0.0124503 -0.00870183 -0.00146746 -0.0173644 -0.0174048 -0.0157086 -0.0175348 -0.0175037
internal_weight=15088.3 13500.4 9645.14 5709.73 3855.26 1587.95 5370.56 3081.69 2977 339.172 3935.4 1522.63 773.562 320.609 361.616 125.804 194.805 2412.77 104.691 411.946 142.519 79.8998 45.9039 1267.34 1257.1 69.8254 52.2862 1187.28
internal_count=61226 54826 39273 23141 15553 6400 21779 12445 12026 1362 16132 6221 3108 1285 1458 504 781 9911 419 1650 571 320 184 5115 5074 281 210 4793
cat_boundaries=0 1 2 3 4 5 6 7 8 9 10
cat_threshold=521 4 513 8 513 12 4 4 4 1
is_linear=0
shrinkage=0.01


Tree=21
num_leaves=29
num_cat=8
split_feature=10 0 2 2 2 5 1 10 1 0 0 10 2 7 10 1 4 2 1 2 0 1 2 0 3 1 0 0
split_gain=4490.3 393.404 359.785 138.17 109.244 98.8453 78.0689 66.6857 46.8459 28.7285 26.2671 22.3484 19.8806 13.8258 11.7467 11.171 9.5644 9.45358 7.45994 6.78418 5.70474 4.01526 3.90153 2.26639 1.75923 1.98992 0.617124 0.53893
threshold=0 14.500000000000002 16.500000000000004 25.500000000000004 20.500000000000004 1 363.50000000000006 2 390.50000000000006 38.500000000000007 24.500000000000004 3 22.500000000000004 4 5 197.00000000000003 6 17.500000000000004 459.50000000000006 30.500000000000004 3.5000000000000004 500.50000000000006 23.500000000000004 42.500000000000007 7 310.50000000000006 14.500000000000002 9.5000000000000018
decision_type=9 2 2 2 2 1 2 9 2 2 2 9 2 1 9 2 9 2 2 2 2 2 2 2 1 2 2 2
left_child=1 4 10 6 7 23 -4 8 -1 -5 11 -3 15 16 -12 -6 22 20 -9 -14 -15 -18 -7 24 27 -26 -19 -2
right_child=5 2 3 9 12 13 -8 18 -10 -11 14 -13 19 17 -16 -17 21 26 -20 -21 -22 -23 -24 -25 25 -27 -28 -29
leaf_value=0.0015202511756894172 -0.017624782845825353 0.004483640909329299 0.0033427903940813244 -0.0073768376872293652 0.010137748444160521 -0.0001313258877170246 0.00083448123705557253 -0.0059686798927818816 -0.0009900924157373466 -0.0014931385323341698 0.0063162198469488284 -0.0023653119179662665 -0.0054272121787020565 -0.014763061777081983 0.0039337238667806178 -0.0027125471186735146 -0.010850663814167541 -0.018402672664004006 -0.011480540799650286 -0.012229675755913471 -0.010611328193085951 -0.0051731080844394303 -0.0070533398634165809 -0.012187993548457118 -0.0090140206691122909 -0.01606164669364836 -0.015591079496463758 -0.017077738082836282
leaf_weight=1541.5926837623119 607.98838645219803 1547.7323412746191 1948.4573697447777 192.50970035791397 6.8654223084449759 35.185439899563789 3420.9260301440954 62.972072601318359 1435.2885707169771 146.7335702329874 1945.4877245277166 47.25377731025219 396.52556373178959 58.784727439284325 391.60140883922577 354.82544508576393 63.445801317691803 32.814276352524757 41.715185180306435 15.489003926515577 83.667910486459732 16.441129580140114 10.719145625829695 10.228759795427321 4.9901756048202506 64.745948597788811 19.421675860881805 577.21419608592987
leaf_count=6233 2460 6332 7935 771 28 141 13844 252 5793 591 8010 190 1588 236 1600 1430 254 132 167 62 335 66 43 41 20 261 78 2333
internal_value=1.81496e-06 0.00187615 0.00295723 0.0013537 -0.000822138 -0.0158624 0.00174489 2.10175e-05 0.000308529 -0.0048349 0.00528499 0.00429338 -0.00418161 -0.010993 0.0059613 -0.00246586 -0.00630899 -0.0130215 -0.0074618 -0.00568537 -0.0123316 -0.00861617 -0.00145295 -0.0172204 -0.0172607 -0.0155717 -0.0173764 -0.0173592
internal_weight=15081.6 13496 9640.7 5708.63 3855.27 1585.65 5369.38 3081.57 2976.88 339.243 3932.08 1594.99 773.705 320.48 2337.09 361.691 125.792 194.689 104.687 412.015 142.453 79.8869 45.9046 1265.17 1254.94 69.7361 52.236 1185.2
internal_count=61226 54826 39273 23141 15553 6400 21779 12445 12026 1362 16132 6522 3108 1285 9610 1458 504 781 419 1650 571 320 184 5115 5074 281 210 4793
cat_boundaries=0 1 2 3 4 5 6 7 8
cat_threshold=521 4 513 513 12 512 4 1
is_linear=0
shrinkage=0.01


Tree=22
num_leaves=29
num_cat=10
split_feature=10 0 2 2 2 5 1 10 0 7 0 10 2 7 1 4 2 1 5 5 0 1 2 0 3 0 0 0
split_gain=4407.39 385.835 353.241 136.549 107.047 97.6335 65.5467 65.3617 50.796 46.83 25.8484 24.8868 19.4833 13.5987 10.9576 9.3768 9.30154 9.15742 7.43956 6.71365 5.6165 3.93403 3.82334 2.24101 1.74273 1.95875 0.609388 0.536236
threshold=0 14.500000000000002 16.500000000000004 22.500000000000004 20.500000000000004 1 391.50000000000006 2 45.500000000000007 3 23.500000000000004 4 22.500000000000004 5 197.00000000000003 6 17.500000000000004 224.50000000000003 7 8 3.5000000000000004 500.50000000000006 23.500000000000004 42.500000000000007 9 20.500000000000004 14.500000000000002 12.500000000000002
decision_type=9 2 2 2 2 1 2 9 2 1 2 9 2 1 2 9 2 2 1 1 2 2 2 2 1 2 2 2
left_child=1 4 10 6 7 23 -4 9 -5 -1 11 -3 14 15 -6 22 20 -12 -9 -14 -15 -17 -7 24 27 -26 -18 -2
right_child=5 2 3 8 12 13 -8 18 -10 -11 17 -13 19 16 -16 21 26 -19 -20 -21 -22 -23 -24 -25 25 -27 -28 -29
leaf_value=0.0035973931120062905 -0.017408921809701213 0.0044171320617395048 0.0033906392935164793 -0.0027500844671575946 0.010050804520829683 -0.00013001235035510871 0.00096664104772170481 -0.01542105329393966 0.0019462651102707641 -0.00016996015480767412 0.0041922132514588244 -0.0029819219606731368 -0.014795492402272457 -0.01462931075231232 -0.0026847985660094316 -0.010744371485896728 -0.018243202816635006 0.006110074442835736 -0.0070939785778194805 -0.0054445732655694565 -0.010507928812341381 -0.0051225342008376371 -0.0069825227297265818 -0.012073292695003486 -0.015924503619822238 -0.0089273019926787746 -0.015446117738173818 -0.016828750267735393
leaf_weight=367.6257509291172 792.41317451000214 1477.1036147475243 2190.752726957202 935.51136729121208 6.8556124567985526 35.185444086790085 2275.9813821911812 12.440867856144905 305.26816457509995 2609.1466594487429 286.17265549302101 43.572404980659485 7.9605140089988708 58.729230761528015 354.90737622976303 63.432787671685219 32.770322054624557 2121.8757223188877 92.243618011474609 404.11942483484745 83.646406218409538 16.437434315681458 10.719578847289084 10.222707137465475 64.650985807180405 4.9882682561874381 19.407976076006889 390.55646373331547
leaf_count=1493 3212 6046 8925 3770 28 141 9212 50 1234 10533 1178 175 32 236 1430 254 132 8733 369 1618 335 66 43 41 261 20 78 1581
internal_value=1.86293e-06 0.00185809 0.00292915 0.00134043 -0.000813917 -0.0157285 0.00215574 2.07993e-05 -0.00159384 0.000305453 0.00523694 0.00421391 -0.00413907 -0.0108885 -0.00244069 -0.00624688 -0.0128999 0.00588257 -0.00738745 -0.00562764 -0.012215 -0.00853171 -0.00143859 -0.01708 -0.01712 -0.0154377 -0.017222 -0.0172182
internal_weight=15074.7 13491.5 9636.24 5707.51 3855.3 1583.16 4466.73 3081.46 1240.78 2976.77 3928.72 1520.68 773.843 320.329 361.763 125.775 194.554 2408.05 104.684 412.08 142.376 79.8702 45.905 1262.83 1252.61 69.6393 52.1783 1182.97
internal_count=61226 54826 39273 23141 15553 6400 18137 12445 5004 12026 16132 6221 3108 1285 1458 504 781 9911 419 1650 571 320 184 5115 5074 281 210 4793
cat_boundaries=0 1 2 3 4 5 6 7 8 9 10
cat_threshold=521 4 513 8 513 12 4 4 4 1
is_linear=0
shrinkage=0.01


Tree=23
num_leaves=29
num_cat=10
split_feature=10 0 2 2 2 5 1 10 7 0 0 10 2 7 10 1 4 2 5 2 0 1 2 0 3 1 0 0
split_gain=4326.44 378.371 346.772 134.262 104.902 96.4738 75.3362 64.0707 45.9425 27.8177 25.4085 21.5715 19.0954 13.3802 11.6951 10.7486 9.19375 9.15643 7.31393 6.63696 5.53158 3.85513 3.74683 2.21707 1.72741 1.96022 0.602278 0.533601
threshold=0 14.500000000000002 16.500000000000004 25.500000000000004 20.500000000000004 1 363.50000000000006 2 3 38.500000000000007 24.500000000000004 4 22.500000000000004 5 6 197.00000000000003 7 17.500000000000004 8 30.500000000000004 3.5000000000000004 500.50000000000006 23.500000000000004 42.500000000000007 9 310.50000000000006 14.500000000000002 9.5000000000000018
decision_type=9 2 2 2 2 1 2 9 1 2 2 9 2 1 9 2 9 2 1 2 2 2 2 2 1 2 2 2
left_child=1 4 10 6 7 23 -4 8 -1 -5 11 -3 15 16 -12 -6 22 20 -9 -14 -15 -18 -7 24 27 -26 -19 -2
right_child=5 2 3 9 12 13 -8 18 -10 -11 14 -13 19 17 -16 -17 21 26 -20 -21 -22 -23 -24 -25 25 -27 -28 -29
leaf_value=0.0035639209342070511 -0.017345131759408633 0.0044005094487193685 0.0032836449750515595 -0.0072731357327077755 0.0099649806234154599 -0.00012871243852102376 0.0008188689245067801 -0.015283988435073542 -0.00016826434970899817 -0.0014838084594037801 0.0062080572495622826 -0.0023264986034304751 -0.0053153827527084177 -0.014498205470324954 0.0038428985323348858 -0.0026573500033112056 -0.010639718149159498 -0.018087914577312181 -0.0070228459494215949 -0.012044132418925126 -0.010406089360809261 -0.0050725103495857828 -0.0069125883355623929 -0.011960482393855915 -0.0087955501651490273 -0.015793735062818039 -0.015304229070236666 -0.016800402106109499
leaf_weight=367.46242818236351 605.53486973047256 1545.6300681382418 1946.8047717809677 192.57362401485443 6.8455604314804068 35.185446813702583 3420.2945164442062 12.426980033516884 2609.1889758110046 146.74459347128868 1941.4224900603294 47.266798317432404 396.64704981446266 58.668011218309402 391.03172636032104 354.98721049726009 63.41623455286026 32.721387267112732 92.246136754751205 15.486832544207571 83.620488867163658 16.433561071753502 10.719747155904768 10.215969607233999 4.9846414923667899 64.550367817282677 19.39211006462574 575.05056074261665
leaf_count=1493 2460 6332 7935 771 28 141 13844 50 10533 591 8010 190 1588 236 1600 1430 254 132 369 62 335 66 43 41 20 261 78 2333
internal_value=1.86116e-06 0.00184017 0.00290124 0.00132728 -0.000805698 -0.0155975 0.0017131 2.06943e-05 0.000302523 -0.00477238 0.00518909 0.00421329 -0.00409703 -0.0107857 0.00585506 -0.00241578 -0.00618556 -0.0127806 -0.00731439 -0.00557066 -0.0121004 -0.00844844 -0.00142438 -0.0169428 -0.0169828 -0.0153064 -0.0170713 -0.0170806
internal_weight=15067.6 13487.1 9631.77 5706.42 3855.29 1580.49 5367.1 3081.32 2976.65 339.318 3925.35 1592.9 773.967 320.157 2332.45 361.833 125.755 194.402 104.673 412.134 142.289 79.8498 45.9052 1260.34 1250.12 69.535 52.1135 1180.59
internal_count=61226 54826 39273 23141 15553 6400 21779 12445 12026 1362 16132 6522 3108 1285 9610 1458 504 781 419 1650 571 320 184 5115 5074 281 210 4793
cat_boundaries=0 1 2 3 4 5 6 7 8 9 10
cat_threshold=521 4 513 8 513 12 512 4 4 1
is_linear=0
shrinkage=0.01


Tree=24
num_leaves=29
num_cat=9
split_feature=10 2 0 0 2 5 2 10 5 1 1 2 0 0 1 0 3 0 5 1 8 0 3 0 0 8 2 0
split_gain=4247.46 371.406 329.109 132.836 127.355 95.3634 81.708 62.8071 57.973 56.6797 45.9554 27.2792 26.77 25.0052 21.6587 13.1889 11.0801 11.1592 8.84117 7.27673 5.54281 2.19448 1.71327 1.93086 1.04306 3.04544 1.34808 0.531985
threshold=0 20.500000000000004 14.500000000000002 20.500000000000004 16.500000000000004 1 25.500000000000004 2 3 363.50000000000006 390.50000000000006 23.500000000000004 38.500000000000007 23.500000000000004 470.50000000000006 32.500000000000007 4 3.5000000000000004 5 459.50000000000006 6 42.500000000000007 7 20.500000000000004 49.500000000000007 8 19.500000000000004 12.500000000000002
decision_type=9 2 2 2 2 1 2 9 1 2 2 2 2 2 2 2 1 2 1 2 9 2 1 2 2 9 2 2
left_child=1 2 7 11 13 21 8 10 -5 -6 -1 14 -8 -4 -3 16 20 -18 -13 -9 -7 22 27 -24 26 -26 -17 -2
right_child=5 3 4 6 9 15 12 19 -10 -11 -12 18 -14 -15 -16 24 17 -19 -20 -21 -22 -23 23 -25 25 -27 -28 -29
leaf_value=0.0014999728945120428 -0.017136417765050111 -0.0011523764641036185 0.0041352101988771824 0.0026213149317472874 0.0041126356878773505 -0.016835636435720693 -0.0077086156704664491 -0.005755873392076765 -0.0017375032071384425 0.0014069450189136275 -0.00098653511506007385 -0.013032179279591213 -0.0014687900838198751 0.0057777725512241475 -0.0047917004794390695 0.0027024253173035641 -0.014890807374748787 -0.0033720618069681412 -0.004923707916269021 -0.011200367135381232 -0.011567994488568665 -0.011849506326991874 -0.015662365964227501 -0.0087117176635676339 -0.011005713744264194 -2.2773613305706304e-05 -0.0039954311247360043 -0.016558276628970379
leaf_weight=1541.2284109890461 789.03571969270706 538.00375054776669 1518.6989604085684 1168.2576934099197 1272.4416453838348 22.908614248037338 130.15772297978401 62.966690361499786 412.71676029264927 1981.8090099692345 1435.300884604454 13.92967514693737 146.76247361302376 2403.2595543712378 235.6431917399168 4.9811972230672854 11.661487102508543 31.469016864895821 579.66002932190895 41.691436007618904 231.23866501450539 10.208567366003988 64.44141697883606 4.9822858870029441 5.2402823716402036 5.2279112935066223 7.2370154857635498 389.01927977800369
leaf_count=6233 3212 2175 6221 4737 5193 92 521 252 1672 8028 5793 56 591 9911 950 20 47 126 2326 167 929 41 261 20 21 21 29 1581
internal_value=1.92768e-06 0.0018225 0.00275454 -0.00113588 0.00392826 -0.0154694 0.00060465 2.0589e-05 0.0014828 0.0024652 0.000299621 -0.00350175 -0.00440524 0.00514198 -0.00226216 -0.0106845 -0.0112468 -0.00650965 -0.00511567 -0.00724229 -0.0120467 -0.016809 -0.0168487 -0.0151779 -0.0032727 -0.00561626 -0.00118296 -0.0169464
internal_weight=15060.2 13482.5 10257.4 3225.13 7176.21 1577.65 1857.89 3081.19 1580.97 3254.25 2976.53 1367.24 276.92 3921.96 773.647 319.964 297.278 43.1305 593.59 104.658 254.147 1257.69 1247.48 69.4237 22.6864 10.4682 12.2182 1178.05
internal_count=61226 54826 41798 13028 29353 6400 7521 12445 6409 13221 12026 5507 1112 16132 3125 1285 1194 173 2382 419 1021 5115 5074 281 91 42 49 4793
cat_boundaries=0 1 2 3 4 5 6 7 8 9
cat_threshold=521 4 513 2 1 4 2 1 8
is_linear=0
shrinkage=0.01


Tree=25
num_leaves=29
num_cat=11
split_feature=10 2 0 0 2 5 2 10 5 1 7 2 0 10 1 7 4 2 5 5 0 1 2 0 3 1 0 0
split_gain=4170.23 364.211 322.896 130.161 125.09 94.3192 80.0799 61.5656 56.8352 55.6181 45.0924 26.7298 26.2296 24.6903 21.213 13.4695 9.11771 9.03181 8.67431 7.18524 5.42462 3.78116 3.68021 2.17318 1.70019 1.93313 0.598115 0.52988
threshold=0 20.500000000000004 14.500000000000002 20.500000000000004 16.500000000000004 1 25.500000000000004 2 3 363.50000000000006 4 23.500000000000004 38.500000000000007 5 470.50000000000006 6 7 17.500000000000004 8 9 3.5000000000000004 500.50000000000006 23.500000000000004 42.500000000000007 10 310.50000000000006 14.500000000000002 9.5000000000000018
decision_type=9 2 2 2 2 1 2 9 1 2 1 2 2 9 2 1 9 2 1 1 2 2 2 2 1 2 2 2
left_child=1 2 7 11 13 23 8 10 -5 -6 -1 14 -8 -4 -3 16 22 20 -13 -9 -17 -18 -7 24 27 -26 -19 -2
right_child=5 3 4 6 9 15 12 19 -10 -11 -12 18 -14 -15 -16 17 21 26 -20 -21 -22 -23 -24 -25 25 -27 -28 -29
leaf_value=0.0035285675960439089 -0.017078957784233424 -0.0011407235987220365 0.0054717694182819078 0.0025958915790751749 0.0040739000451239602 -4.3031024690347221e-05 -0.0076300701485672211 -0.015070493082056061 -0.0017197962198841588 0.0013930967139890468 -0.00016967550383660448 -0.012906894690531474 -0.001453927705483783 0.003181087143796512 -0.0047418883680423393 -0.014262675778082745 -0.010434303037210444 -0.017840275486268261 -0.0048733932718829399 -0.0068752245012952051 -0.010206903126971789 -0.0049185928892889058 -0.0067657405210102143 -0.011740307978237099 -0.00858356491755621 -0.015537087571493271 -0.015067000243065419 -0.016535849427624566
leaf_weight=367.28480540215969 602.77391195297241 538.06424136459827 3235.8075585067272 1167.9040694087744 1271.6987807750702 35.179552316665649 130.18250408768654 12.401909619569778 412.79601486027241 1981.4961102604866 2609.135908305645 13.924265012145042 146.78001910448074 682.76594488322735 235.73687329888344 58.540276870131493 63.368328124284744 32.63000077009201 579.78751246631145 92.243031978607178 83.552139803767204 16.419174686074257 10.717504709959028 10.200523018836973 4.9779446125030509 64.32755184173584 19.358019605278969 572.60930673778057
leaf_count=1493 2460 2175 13337 4737 5193 141 521 50 1672 8028 10533 56 591 2795 950 236 254 132 2326 369 335 66 43 41 20 261 78 2333
internal_value=1.89055e-06 0.00180488 0.00272822 -0.00112451 0.0038914 -0.0153439 0.000598665 2.03752e-05 0.00146823 0.00244135 0.000296633 -0.00346605 -0.00436055 0.00509498 -0.0022391 -0.0105844 -0.00603598 -0.0125663 -0.00506349 -0.00717079 -0.0118849 -0.00827469 -0.00134221 -0.0166782 -0.0167179 -0.0150521 -0.0168269 -0.0168152
internal_weight=15052.7 13478 10252.8 3225.18 7171.77 1574.65 1857.66 3081.07 1580.7 3253.19 2976.42 1367.51 276.963 3918.57 773.801 319.765 125.685 194.08 593.712 104.645 142.092 79.7875 45.8971 1254.89 1244.69 69.3055 51.988 1175.38
internal_count=61226 54826 41798 13028 29353 6400 7521 12445 6409 13221 12026 5507 1112 16132 3125 1285 504 781 2382 419 571 320 184 5115 5074 281 210 4793
cat_boundaries=0 1 2 3 4 5 6 7 8 9 10 11
cat_threshold=521 4 513 2 8 512 12 4 4 4 1
is_linear=0
shrinkage=0.01


Tree=26
num_leaves=29
num_cat=8
split_feature=10 0 2 2 2 5 1 10 0 1 0 10 2 7 1 10 4 2 1 2 0 1 2 0 3 1 0 0
split_gain=4094.88 357.443 327.912 127.787 99.2192 93.3031 61.5452 60.3549 48.3807 45.0633 24.6136 24.0057 18.1128 13.2638 10.504 9.05862 8.94205 8.90091 7.11997 6.47278 5.34729 3.70708 3.60691 2.15309 1.68816 1.91696 0.592319 0.529237
threshold=0 14.500000000000002 16.500000000000004 22.500000000000004 20.500000000000004 1 391.50000000000006 2 45.500000000000007 390.50000000000006 23.500000000000004 3 22.500000000000004 4 197.00000000000003 5 6 17.500000000000004 459.50000000000006 30.500000000000004 3.5000000000000004 500.50000000000006 23.500000000000004 42.500000000000007 7 600.50000000000011 14.500000000000002 12.500000000000002
decision_type=9 2 2 2 2 1 2 9 2 2 2 9 2 1 2 9 9 2 2 2 2 2 2 2 1 2 2 2
left_child=1 4 10 6 7 23 -4 9 -5 -1 11 -3 14 16 -6 -12 22 20 -9 -14 -15 -18 -7 24 27 -26 -19 -2
right_child=5 2 3 8 12 13 -8 18 -10 -11 15 -13 19 17 -16 -17 21 26 -20 -21 -22 -23 -24 -25 25 -27 -28 -29
leaf_value=0.0014826194762462886 -0.016876818420849676 0.0042498079479981405 0.0032774265748762156 -0.0026759428785686728 0.0098997172199222026 -4.2600806370834843e-05 0.00092732241510680869 -0.0056243307360102426 0.0019080035779079124 -0.00097972095778972633 0.0059978577367774356 -0.0029985658325973386 -0.0051669389028165284 -0.014138625238917268 -0.0025853390922367103 0.0038695289459172184 -0.010334316266612275 -0.017695327429525568 -0.011011112702310493 -0.011813279228819808 -0.010109499427873517 -0.004870763004186842 -0.006698470049713209 -0.011632837730051809 -0.013041648306305003 -0.016624348354543288 -0.014932949356912422 -0.016300007501425007
leaf_weight=1540.9255237430334 785.27285730838776 1472.9671524465084 2187.1354602426291 935.81805413961411 6.8376697897911063 35.179547116160393 2274.9880737513304 62.956652224063873 305.12243035435677 1435.3726950287819 1993.7367929965258 43.566787987947464 396.76846824586391 58.463745296001434 355.18761906027794 404.91948422789574 63.341748133301735 32.568614989519119 41.666621297597885 15.479507476091383 83.513769179582596 16.414625614881516 10.71688838303089 10.191856727004049 33.021160051226616 36.159526705741882 19.336582273244858 387.30196572840214
leaf_count=6233 3212 6046 8925 3770 28 141 9212 252 1234 5793 8251 175 1588 236 1430 1660 254 132 167 62 335 66 43 41 134 147 78 1581
internal_value=1.93117e-06 0.00178753 0.00282007 0.00128997 -0.000783637 -0.0152212 0.00207946 2.0272e-05 -0.00154804 0.000293789 0.00504864 0.00404917 -0.00398378 -0.0104864 -0.00234677 0.00568013 -0.00597725 -0.012453 -0.00710052 -0.00541893 -0.0117757 -0.00819491 -0.00132898 -0.0165504 -0.01659 -0.0149287 -0.0166855 -0.0166872
internal_weight=15044.9 13473.4 9618.25 5703.06 3855.19 1571.48 4462.12 3080.92 1240.94 2976.3 3915.19 1516.53 774.273 319.536 362.025 2398.66 125.653 193.883 104.623 412.248 141.978 79.7564 45.8964 1251.95 1241.76 69.1807 51.9052 1172.57
internal_count=61226 54826 39273 23141 15553 6400 18137 12445 5004 12026 16132 6221 3108 1285 1458 9911 504 781 419 1650 571 320 184 5115 5074 281 210 4793
cat_boundaries=0 1 2 3 4 5 6 7 8
cat_threshold=521 4 513 513 12 512 4 1
is_linear=0
shrinkage=0.01


Tree=27
num_leaves=29
num_cat=8
split_feature=10 2 0 0 2 5 2 7 5 1 1 0 2 0 0 1 7 2 4 8 0 1 2 0 3 0 0 0
split_gain=4021.27 351.085 311.086 125.756 120.44 92.3286 78.0509 59.86 55.5752 53.827 47.8444 36.564 25.6641 25.4255 24.2216 16.0997 13.0653 8.77575 8.77048 8.15012 5.27269 3.63501 3.53517 2.13414 1.67777 1.91472 0.587037 0.527619
threshold=0 20.500000000000004 14.500000000000002 20.500000000000004 16.500000000000004 1 25.500000000000004 2 3 363.50000000000006 390.50000000000006 5.5000000000000009 24.500000000000004 38.500000000000007 24.500000000000004 470.50000000000006 4 17.500000000000004 5 6 3.5000000000000004 500.50000000000006 23.500000000000004 42.500000000000007 7 20.500000000000004 14.500000000000002 9.5000000000000018
decision_type=9 2 2 2 2 1 2 1 1 2 2 2 2 2 2 2 1 2 9 9 2 2 2 2 1 2 2 2
left_child=1 2 7 12 14 23 8 10 -5 -6 -1 -9 15 -8 -4 -3 18 20 22 -14 -18 -20 -7 24 27 -26 -19 -2
right_child=5 3 4 6 9 16 13 11 -10 -11 -12 -13 19 -15 -16 -17 17 26 21 -21 -22 -23 -24 -25 25 -27 -28 -29
leaf_value=0.0020048160252623386 -0.016825326922037247 -0.0017779034278603829 0.0040490035142280393 0.0025630026913976063 0.0040046867429563565 -4.2174740009413562e-05 -0.007525433029977221 -0.0067195943393895995 -0.0017046111768203775 0.0013663678921209926 -0.00070772816912594862 -0.0010500615204635528 -0.01498100038299853 -0.001444945826129996 0.0056546175239554457 -0.0043357392279487744 -0.01401689337361086 -0.017554019404779211 -0.010235796516905009 -0.0057187183492754335 -0.010013497025814722 -0.0048234431486325734 -0.0066320137808044298 -0.011527043078960247 -0.015291363421421936 -0.0083681708034080097 -0.014801588340219045 -0.016283194871265335
leaf_weight=1277.7138410359621 599.72574770450592 692.06289024651051 1588.4851455241442 1167.3991043418646 1270.3457612246275 35.179541036486626 130.20959095656872 186.34253486990929 412.84778279066086 1980.8760765194893 1323.3919369578362 293.34435723721981 9.9821432381868362 146.79007132351398 2323.2590331733227 383.83715683221817 58.382172852754593 32.502808719873428 63.312047675251961 281.96965408325195 83.471510618925095 16.409927517175674 10.716038689017294 10.182588651776312 64.080649733543396 4.9700725227594367 19.313224673271179 569.90868970751762
leaf_count=5169 2460 2793 6522 4737 5193 141 521 752 1672 8028 5340 1184 40 591 9610 1544 236 132 254 1130 335 66 43 41 261 20 78 2333
internal_value=1.96725e-06 0.00177035 0.0026776 -0.00110551 0.00382047 -0.015101 0.000588675 2.00609e-05 0.00144743 0.00239754 0.000621951 -0.00318811 -0.00340657 -0.00430682 0.00500286 -0.00269136 -0.0103899 -0.0123415 -0.00591925 -0.00603883 -0.0116682 -0.0081162 -0.00131589 -0.0164256 -0.016465 -0.0148075 -0.0165474 -0.016562
internal_weight=15037 13468.9 10243.8 3225.1 7162.97 1568.16 1857.25 3080.79 1580.25 3251.22 2601.11 479.687 1367.85 277 3911.74 1075.9 319.287 193.67 125.618 291.952 141.854 79.722 45.8956 1248.87 1238.69 69.0507 51.816 1169.63
internal_count=61226 54826 41798 13028 29353 6400 7521 12445 6409 13221 10509 1936 5507 1112 16132 4337 1285 781 504 1170 571 320 184 5115 5074 281 210 4793
cat_boundaries=0 1 2 3 4 5 6 7 8
cat_threshold=521 4 12 2 12 4 2 1
is_linear=0
shrinkage=0.01


Tree=28
num_leaves=29
num_cat=11
split_feature=10 2 0 0 2 5 2 10 5 1 7 2 0 10 1 7 2 4 5 5 0 1 2 0 3 1 0 0
split_gain=3949.31 344.283 305.223 123.226 118.303 91.3947 76.4976 58.9903 54.4845 52.8198 44.1099 25.1943 24.9156 24.059 20.3505 12.8738 8.656 8.60288 8.46205 7.01843 5.2007 3.56488 3.46494 2.11631 1.66764 1.91018 0.58224 0.527849
threshold=0 20.500000000000004 14.500000000000002 20.500000000000004 16.500000000000004 1 25.500000000000004 2 3 363.50000000000006 4 23.500000000000004 38.500000000000007 5 470.50000000000006 6 17.500000000000004 7 8 9 3.5000000000000004 500.50000000000006 23.500000000000004 42.500000000000007 10 310.50000000000006 14.500000000000002 12.500000000000002
decision_type=9 2 2 2 2 1 2 9 1 2 1 2 2 9 2 1 2 9 1 1 2 2 2 2 1 2 2 2
left_child=1 2 7 11 13 23 8 10 -5 -6 -1 14 -8 -4 -3 17 20 22 -13 -9 -17 -19 -7 24 27 -26 -18 -2
right_child=5 3 4 6 9 15 12 19 -10 -11 -12 18 -14 -15 -16 16 26 21 -20 -21 -22 -23 -24 -25 25 -27 -28 -29
leaf_value=0.0034877852660568217 -0.016629236693877419 -0.0011049569045359186 0.0053291767176355921 0.0025381468354476865 0.0039669956420176535 -4.1752857640668149e-05 -0.0074492922324083692 -0.014832844931934553 -0.0016872505961496257 0.0013529162228693764 -0.00017083380068554072 -0.012673651469876599 -0.0014303299566847808 0.0030713157404447314 -0.0046310912010783826 -0.013897405784382356 -0.017416219222562781 -0.010138703807665517 -0.004734873562973173 -0.0067234923334876708 -0.0099188569606988315 -0.0047766247369767072 -0.0065663561834752209 -0.011422877171079131 -0.0082567618861996914 -0.015172775217156001 -0.014672825523416151 -0.016053106948065818
leaf_weight=367.07333329319954 781.15019172430038 538.20241285860538 3226.7943642437458 1167.0448250174522 1269.5951584428549 35.179535612463951 130.22500927746296 12.369011476635933 412.92444016039371 1980.5669612288475 2609.0675810724497 13.908534824848175 146.80708646774292 681.51905030012131 235.92444257438183 58.295723497867584 32.432726725935936 63.279328748583794 580.07142885029316 92.228247255086899 83.425493076443672 16.405086740851402 10.714962854981421 10.172738954424856 4.9652377367019644 63.948071211576462 19.288007780909538 385.41646586358547
leaf_count=1493 3212 2175 13337 4737 5193 141 521 50 1672 8028 10533 56 591 2795 950 236 132 254 2326 369 335 66 43 41 20 261 78 1581
internal_value=1.92606e-06 0.00175324 0.00265201 -0.00109446 0.00378465 -0.0149833 0.000582852 1.9853e-05 0.00143321 0.00237435 0.000290249 -0.0033719 -0.00426328 0.00495721 -0.00218088 -0.0102948 -0.012232 -0.00586196 -0.00492245 -0.00702079 -0.0115625 -0.00803854 -0.00130294 -0.0163035 -0.0163429 -0.014689 -0.0164125 -0.0164397
internal_weight=15029 13464.3 10239.2 3225.11 7158.48 1564.67 1857 3080.74 1579.97 3250.16 2976.14 1368.11 277.032 3908.31 774.127 319.021 193.442 125.579 593.98 104.597 141.721 79.6844 45.8945 1245.65 1235.48 68.9133 51.7207 1166.57
internal_count=61226 54826 41798 13028 29353 6400 7521 12445 6409 13221 12026 5507 1112 16132 3125 1285 781 504 2382 419 571 320 184 5115 5074 281 210 4793
cat_boundaries=0 1 2 3 4 5 6 7 8 9 10 11
cat_threshold=521 4 513 2 8 512 12 4 4 4 1
is_linear=0
shrinkage=0.01


Tree=29
num_leaves=29
num_cat=9
split_feature=10 0 2 2 2 5 10 1 0 7 1 0 10 7 1 2 4 2 1 3 1 2 0 3 1 0 0 1
split_gain=3879.03 337.699 310.097 120.995 94.033 90.4988 63.1339 57.0247 53.0963 40.4477 36.5839 23.8472 23.5273 12.6889 9.10936 8.5414 8.43913 6.2962 6.75869 5.17667 3.49661 3.39619 2.09951 1.65841 1.895 0.5779 0.526684 0.0455269
threshold=0 14.500000000000002 16.500000000000004 23.500000000000004 22.500000000000004 1 2 391.50000000000006 38.500000000000007 3 390.50000000000006 23.500000000000004 4 5 224.50000000000003 17.500000000000004 6 30.500000000000004 328.50000000000006 7 500.50000000000006 23.500000000000004 42.500000000000007 8 600.50000000000011 14.500000000000002 9.5000000000000018 480.50000000000006
decision_type=9 2 2 2 2 1 9 2 2 1 2 2 9 1 2 2 9 2 2 1 2 2 2 1 2 2 2 2
left_child=1 4 11 7 6 22 10 -4 -5 -8 -1 12 -3 16 -13 19 21 18 -6 -15 -18 -7 23 26 -25 -17 -2 -19
right_child=5 2 3 8 17 13 9 -9 -10 -11 -12 14 -14 15 -16 25 20 27 -20 -21 -22 -23 -24 24 -26 -27 -28 -29
leaf_value=0.0015123954342924466 -0.016583386549801727 0.0041270040540931016 0.0031101763775029352 -0.003437844231985124 -0.0086892344248985093 -4.1335363201297945e-05 0.0026314380898003055 0.00088512227972948904 0.0011529995304256722 -0.0041304480375265965 -0.0007748600515503233 0.0038439090532220595 -0.0030327526990354165 -0.012246163326006259 0.0057624847234837755 -0.017281800576832089 -0.010043001354958477 -0.0096513365939344814 -0.0045527695100819419 -0.0066478413801269376 -0.0047303014846508873 -0.0065014820786797036 -0.011320293735763706 -0.012693330019874023 -0.016262960693842275 -0.014546572534607853 -0.016041630116853597 -0.012476621781375081
leaf_weight=1476.6882774233818 596.40969514846802 1469.7860432267189 2229.0619822442532 686.1870945841074 45.246956989169121 35.179530337452888 101.11023741960526 2386.7409908026457 397.66801597177982 537.25468696653843 1327.7472443729639 284.27155081927776 43.554982915520668 121.47803381085396 2107.2746764868498 32.358510166406631 63.243686899542809 5.2395406216382971 351.59944698214531 20.102357044816017 16.400107949972153 10.71366775035858 10.16232657432556 32.843189179897308 35.926736310124397 19.260993078351021 566.96610967814922 10.228783115744589
leaf_count=5973 2460 6046 9106 2761 181 141 410 9666 1608 2165 5355 1178 175 490 8733 132 254 21 1407 81 66 43 41 134 147 78 2333 41
internal_value=1.96213e-06 0.0017364 0.00274124 0.00125373 -0.000762263 -0.014868 -0.000221479 0.00195986 -0.00175253 -0.00303383 0.000427623 0.00491218 0.00392751 -0.0102012 0.00553485 -0.0121244 -0.00580537 -0.00527534 -0.00502691 -0.0114583 -0.00796189 -0.00129012 -0.0161842 -0.0162235 -0.0145727 -0.0162806 -0.0163202 -0.0115843
internal_weight=15020.7 13459.7 9604.55 5699.66 3855.12 1561.04 3442.8 4615.8 1083.86 638.365 2804.44 3904.89 1513.34 318.737 2391.55 193.2 125.537 412.315 396.846 141.58 79.6438 45.8932 1242.31 1232.15 68.7699 51.6195 1163.38 15.4683
internal_count=61226 54826 39273 23141 15553 6400 13903 18772 4369 2575 11328 16132 6221 1285 9911 781 504 1650 1588 571 320 184 5115 5074 281 210 4793 62
cat_boundaries=0 1 2 3 4 5 6 7 8 9
cat_threshold=521 4 512 8 513 12 4 1 1
is_linear=0
shrinkage=0.01


Tree=30
num_leaves=29
num_cat=10
split_feature=10 2 0 0 2 5 2 7 5 1 1 0 2 0 10 1 0 3 0 8 8 0 3 0 0 8 2 0
split_gain=3810.27 332.484 293.728 119.308 113.852 89.646 74.5111 58.187 53.3287 51.141 46.2231 35.7431 24.2628 24.0378 23.6454 15.2235 12.5172 10.5921 10.7272 7.96103 5.46585 2.08368 1.65066 1.90181 1.00624 2.95796 1.23022 0.527711
threshold=0 20.500000000000004 14.500000000000002 20.500000000000004 16.500000000000004 1 25.500000000000004 2 3 363.50000000000006 390.50000000000006 5.5000000000000009 24.500000000000004 38.500000000000007 4 470.50000000000006 32.500000000000007 5 3.5000000000000004 6 7 42.500000000000007 8 20.500000000000004 49.500000000000007 9 19.500000000000004 12.500000000000002
decision_type=9 2 2 2 2 1 2 1 1 2 2 2 2 2 9 2 2 1 2 9 9 2 1 2 2 9 2 2
left_child=1 2 7 12 14 21 8 10 -5 -6 -1 -9 15 -8 -4 -3 17 20 -19 -14 -7 22 27 -24 26 -26 -18 -2
right_child=5 3 4 6 9 16 13 11 -10 -11 -12 -13 19 -15 -16 -17 24 18 -20 -21 -22 -23 23 -25 25 -27 -28 -29
leaf_value=0.001974981551646588 -0.01639286708724795 -0.0017355784522769127 0.00523625048271824 0.0025052733742753582 0.0039004079333268193 -0.016209101435899882 -0.0073395242585875629 -0.0066309884859002089 -0.0016751591802241393 0.0013272017563703959 -0.00069137888643601409 -0.001026345891487435 -0.014717195220283211 -0.0014275244522635722 0.0029999769794560021 -0.0042223669964079422 0.0028710648798852181 -0.014274320919812414 -0.0029486182145506503 -0.0055620971699109466 -0.010967887621433929 -0.011219247703642387 -0.014942286086964468 -0.0080390213880283615 -0.01049516024179219 0 -0.0035384195608269735 -0.015816808614087942
leaf_weight=1277.2453682869673 776.69207471609116 692.21175315976143 3220.7294302880764 1166.5289151370525 1268.2453889250755 22.784158557653427 130.24079248309135 186.43708892166615 412.96203500032425 1979.9599649906158 1323.5272660553455 293.35736142098904 9.9794911742210388 146.81033480167389 680.67256641387939 384.08251056075096 4.9824591875076312 11.571948871016501 31.411975875496864 282.05515359342098 229.97340422868729 10.151369839906691 63.666960582137108 4.9550593942403784 5.2436896413564664 5.2335632145404816 7.2408531159162521 383.37418261170387
leaf_count=5169 3212 2793 13337 4737 5193 92 521 752 1672 8028 5340 1184 40 591 2795 1544 20 47 126 1130 929 41 261 20 21 21 29 1581
internal_value=1.91931e-06 0.00171963 0.00260353 -0.00107868 0.00371578 -0.0147549 0.000572147 2.17911e-05 0.00141166 0.0023322 0.000615326 -0.0031408 -0.00331924 -0.00421034 0.00486746 -0.00262393 -0.0101089 -0.0106594 -0.00602094 -0.00587837 -0.0114443 -0.0160675 -0.0161067 -0.0144584 -0.00289208 -0.00518606 -0.000843978 -0.0162034
internal_weight=15012.3 13455 10230.2 3224.87 7149.61 1557.28 1856.54 3080.57 1579.49 3248.21 2600.77 479.794 1368.33 277.051 3901.4 1076.29 318.442 295.741 42.9839 292.035 252.758 1238.84 1228.69 68.622 22.7006 10.4773 12.2233 1160.07
internal_count=61226 54826 41798 13028 29353 6400 7521 12445 6409 13221 10509 1936 5507 1112 16132 4337 1285 1194 173 1170 1021 5115 5074 281 91 42 49 4793
cat_boundaries=0 1 2 3 4 5 6 7 8 9 10
cat_threshold=521 4 12 2 512 1 2 2 1 8
is_linear=0
shrinkage=0.01


Tree=31
num_leaves=29
num_cat=9
split_feature=10 2 0 0 2 5 2 10 5 1 7 2 0 0 1 7 2 4 8 1 0 1 2 0 3 1 0 0
split_gain=3743.03 326.057 288.211 116.911 111.854 88.8532 73.0299 57.2037 52.2821 50.1848 42.8587 23.7816 23.5589 23.4862 14.9134 12.7853 8.45515 8.37064 7.80617 6.9147 5.13783 3.43502 3.3598 2.0688 1.64307 1.89085 0.577288 0.526959
threshold=0 20.500000000000004 14.500000000000002 20.500000000000004 16.500000000000004 1 25.500000000000004 2 3 363.50000000000006 4 24.500000000000004 38.500000000000007 24.500000000000004 470.50000000000006 5 17.500000000000004 6 7 459.50000000000006 3.5000000000000004 500.50000000000006 16.500000000000004 42.500000000000007 8 310.50000000000006 14.500000000000002 9.5000000000000018
decision_type=9 2 2 2 2 1 2 9 1 2 1 2 2 2 2 1 2 9 9 2 2 2 2 2 1 2 2 2
left_child=1 2 7 11 13 23 8 10 -5 -6 -1 14 -8 -4 -3 17 20 22 -13 -9 -17 -19 -7 24 27 -26 -18 -2
right_child=5 3 4 6 9 15 12 19 -10 -11 -12 18 -14 -15 -16 16 26 21 -20 -21 -22 -23 -24 -25 25 -27 -28 -29
leaf_value=0.0034408206432557588 -0.016352359320386475 -0.001717974323678694 0.0038828239741059783 0.002480978668786135 0.0038637200526097501 0.0018570020344849606 -0.0072657762971792671 -0.0054506190724104052 -0.0016581076155542892 0.0013141336979586816 -0.00016656706009884398 -0.014573063003499238 -0.0014130888450869497 0.0054665062731729464 -0.0041790779640535954 -0.013587957534355851 -0.01706761976212022 -0.0098546400450805292 -0.0055059222897166126 -0.010761584958862687 -0.0096279153062105438 -0.0045862446634428507 -0.0036619697956414318 -0.011119694882578475 -0.0079434615178502234 -0.014829718225448343 -0.014335399416171192 -0.015810417474586544
