tree
version=v4
num_class=1
num_tree_per_iteration=1
label_index=0
max_feature_idx=10
objective=binary sigmoid:1
feature_names=age_building plinth_area_sq_ft height_ft_pre_eq land_surface_condition_enc foundation_type_enc roof_type_enc ground_floor_type_enc other_floor_type_enc position_enc plan_configuration_enc superstructure_enc
feature_infos=[0:999] [70:4560] [6:99] [0:2] [0:4] [0:2] [0:4] [0:3] [0:3] [0:9] [0:10]
tree_sizes=959 991 984 992 989 985 994 987 983 995 988 992 996 988 993 992 987 989 998 991 992 993 991 992 996 990 990 991 990 986 984 990 992 995 992 984 992 996 992 991 989 988 993 994 991 990 982 992 989 990

Tree=0
num_leaves=8
num_cat=0
split_feature=5 0 2 6 7 4 6
split_gain=6318.58 765.168 522.178 196.041 77.0558 14.9171 14.0906
threshold=1.5000000000000002 14.500000000000002 16.500000000000004 1.5000000000000002 1.5000000000000002 2.5000000000000004 1.5000000000000002
decision_type=2 2 2 2 2 2 2
left_child=1 3 -3 -1 5 -2 -6
right_child=4 2 -4 -5 6 -7 -8
leaf_value=0.19415347747922265 0.17590212965630309 0.20174371878181796 0.19704664848688869 0.17997768066814213 0.18831198744582392 0.17360097130561106 0.17959034198361168
leaf_weight=3925.644138738513 415.76714242994785 4025.1905301958323 5744.7182473093271 100.0416471362114 44.573011100292206 873.63101756572723 31.69636344909668
leaf_count=15853 1679 16255 23199 404 180 3528 128
internal_value=0.195439 0.19747 0.198982 0.193801 0.174921 0.174343 0.184687
internal_weight=0 13795.6 9769.91 4025.69 1365.67 1289.4 76.2694
internal_count=61226 55711 39454 16257 5515 5207 308
is_linear=0
shrinkage=1


Tree=1
num_leaves=8
num_cat=0
split_feature=5 0 2 10 7 4 6
split_gain=6182.19 750.233 512.373 192 75.1617 14.5387 13.7668
threshold=1.5000000000000002 14.500000000000002 16.500000000000004 8.5000000000000018 1.5000000000000002 2.5000000000000004 1.5000000000000002
decision_type=2 2 2 2 2 2 2
left_child=1 3 -3 -1 5 -2 -6
right_child=4 2 -4 -5 6 -7 -8
leaf_value=-0.0058609720179536827 -0.019306291934847702 0.0062456712081817665 0.0015919074363402472 -0.00049637989436721649 -0.0070508263917097866 -0.021575949885096427 -0.015666739078459925
leaf_weight=844.12911960482597 416.51974046230316 4022.6796945184469 5743.8149540126324 3182.1914522498846 44.603405892848969 875.38795030117035 31.743358612060547
leaf_count=3408 1679 16255 23199 12849 180 3528 128
internal_value=0 0.00201126 0.00350873 -0.00162108 -0.0202744 -0.0208442 -0.0106331
internal_weight=0 13792.8 9766.49 4026.32 1368.25 1291.91 76.3468
internal_count=61226 55711 39454 16257 5515 5207 308
is_linear=0
shrinkage=0.01


Tree=2
num_leaves=8
num_cat=0
split_feature=5 0 2 6 7 4 6
split_gain=6050.04 735.595 502.765 190.8 73.3684 14.1859 13.4553
threshold=1.5000000000000002 14.500000000000002 16.500000000000004 1.5000000000000002 1.5000000000000002 2.5000000000000004 1.5000000000000002
decision_type=2 2 2 2 2 2 2
left_child=1 3 -3 -1 5 -2 -6
right_child=4 2 -4 -5 6 -7 -8
leaf_value=-0.0012568560553689869 -0.0190824932564755 0.0061871775373193976 0.0015762363848378605 -0.015229019381253501 -0.0069757622938063325 -0.021322595843683782 -0.015489163105413532
leaf_weight=3926.7119862884283 417.18717364966869 4020.1158130168915 5742.9133891761303 100.22967636585236 44.632389843463898 876.9234527349472 31.785991668701172
leaf_count=15853 1679 16255 23199 404 180 3528 128
internal_value=0 0.00199157 0.00347488 -0.00160462 -0.0200382 -0.0206004 -0.0105169
internal_weight=0 13790 9763.03 4026.94 1370.53 1294.11 76.4184
internal_count=61226 55711 39454 16257 5515 5207 308
is_linear=0
shrinkage=0.01


Tree=3
num_leaves=8
num_cat=0
split_feature=5 0 2 10 7 4 10
split_gain=5921.93 721.246 493.352 187.083 71.669 13.8568 13.3808
threshold=1.5000000000000002 14.500000000000002 16.500000000000004 8.5000000000000018 1.5000000000000002 2.5000000000000004 8.5000000000000018
decision_type=2 2 2 2 2 2 2
left_child=1 3 -3 -1 5 -2 -6
right_child=4 2 -4 -5 6 -7 -8
leaf_value=-0.0057716834365774744 -0.018865092068319766 0.0061293118964768781 0.0015607202042625678 -0.0004779565307762839 -0.012243461306873701 -0.021077468544026805 -0.00089868153981480497
leaf_weight=844.79082655906677 417.77186883985996 4017.501307874918 5742.0138984918594 3182.7507802695036 64.074175700545311 878.24388599395752 12.410207584500311
leaf_count=3408 1679 16255 23199 12849 258 3528 50
internal_value=0 0.00197208 0.00344138 -0.00158833 -0.0198092 -0.0203643 -0.0104027
internal_weight=0 13787.1 9759.52 4027.54 1372.5 1296.02 76.4844
internal_count=61226 55711 39454 16257 5515 5207 308
is_linear=0
shrinkage=0.01


Tree=4
num_leaves=8
num_cat=0
split_feature=5 0 2 6 7 4 10
split_gain=5797.69 707.18 484.127 185.749 70.0618 13.5496 13.0904
threshold=1.5000000000000002 14.500000000000002 16.500000000000004 1.5000000000000002 1.5000000000000002 2.5000000000000004 8.5000000000000018
decision_type=2 2 2 2 2 2 2
left_child=1 3 -3 -1 5 -2 -6
right_child=4 2 -4 -5 6 -7 -8
leaf_value=-0.001228900328111498 -0.018653805075866087 0.0060720643701171455 0.0015453561492980673 -0.015003810056042113 -0.012109404766579651 -0.020840179028947414 -0.00088962692556662662
leaf_weight=3927.7335005700588 418.27620284259319 4014.8378746211529 5741.1164819598198 100.39484259486198 64.135356783866882 879.35540091991425 12.411148577928541
leaf_count=15853 1679 16255 23199 404 258 3528 50
internal_value=0 0.00195278 0.00340822 -0.00157222 -0.019587 -0.0201354 -0.0102902
internal_weight=0 13784.1 9755.95 4028.13 1374.18 1297.63 76.5465
internal_count=61226 55711 39454 16257 5515 5207 308
is_linear=0
shrinkage=0.01


Tree=5
num_leaves=8
num_cat=0
split_feature=6 0 2 5 7 4 2
split_gain=5681.18 686.589 472.3 193.528 95.1985 19.4442 13.776
threshold=1.5000000000000002 14.500000000000002 16.500000000000004 1.5000000000000002 1.5000000000000002 3.5000000000000004 33.500000000000007
decision_type=2 2 2 2 2 2 2
left_child=1 3 -3 -1 5 -2 -6
right_child=4 2 -4 -5 6 -7 -8
leaf_value=-0.0012164693059158688 -0.018055626742622129 0.0060329326368851188 0.0015576536136118063 -0.017481966519455418 -0.0089411304178814606 -0.020655574521526034 -0.020771334004449402
leaf_weight=3928.1888570189476 427.058454439044 4009.0826985836029 5726.6740192621946 74.537184730172157 98.990579262375832 881.15157043933868 10.930083796381949
leaf_count=15853 1714 16242 23143 299 399 3532 44
internal_value=0 0.00196711 0.00340053 -0.00151936 -0.0190558 -0.0198068 -0.0101175
internal_weight=0 13738.5 9735.76 4002.73 1418.13 1308.21 109.921
internal_count=61226 55537 39385 16152 5689 5246 443
is_linear=0
shrinkage=0.01


Tree=6
num_leaves=8
num_cat=0
split_feature=5 0 2 10 7 10 4
split_gain=5565.87 680.085 466.138 181.219 66.529 12.8313 12.7577
threshold=1.5000000000000002 14.500000000000002 16.500000000000004 8.5000000000000018 1.5000000000000002 8.5000000000000018 2.5000000000000004
decision_type=2 2 2 2 2 2 2
left_child=1 3 -3 -1 6 -6 -2
right_child=4 2 -4 -5 5 -7 -8
leaf_value=-0.0056551653446826524 -0.018269787746428925 0.0059602488976973587 0.0015163988589312176 -0.00044714785626928866 -0.011917456314213044 -0.00081310353612198028 -0.020389415100035668
leaf_weight=845.58067470788956 419.01587404310703 4009.4131255894899 5739.4030549824238 3183.6697673946619 64.21236926317215 12.418524250388144 880.97045007348061
leaf_count=3408 1679 16255 23199 12849 258 50 3528
internal_value=0 0.00191572 0.00334403 -0.00154011 -0.0191725 -0.0101179 -0.0197062
internal_weight=0 13778.1 9748.82 4029.25 1376.62 76.6309 1299.99
internal_count=61226 55711 39454 16257 5515 308 5207
is_linear=0
shrinkage=0.01


Tree=7
num_leaves=8
num_cat=0
split_feature=6 0 2 5 7 4 2
split_gain=5460.53 659.798 454.749 185.627 90.0448 18.3553 13.364
threshold=1.5000000000000002 14.500000000000002 16.500000000000004 1.5000000000000002 1.5000000000000002 3.5000000000000004 33.500000000000007
decision_type=2 2 2 2 2 2 2
left_child=1 3 -3 -1 5 -2 -6
right_child=4 2 -4 -5 6 -7 -8
leaf_value=-0.0011894177208951885 -0.017696978239576645 0.0059221932026976348 0.0015287983527093251 -0.017107949096496929 -0.0088196372730705297 -0.020221236211162542 -0.020461743337175427
leaf_weight=3929.1492774188519 427.69213211536407 4003.557735234499 5724.9300300627947 74.646273747086525 99.072897061705589 882.39357873797417 10.949675172567366
leaf_count=15853 1714 16242 23143 299 399 3532 44
internal_value=0 0.00193061 0.00333681 -0.0014862 -0.0186674 -0.0193972 -0.00997828
internal_weight=0 13732.3 9728.49 4003.8 1420.11 1310.09 110.023
internal_count=61226 55537 39385 16152 5689 5246 443
is_linear=0
shrinkage=0.01


Tree=8
num_leaves=8
num_cat=0
split_feature=6 0 2 5 7 4 2
split_gain=5349.56 646.948 446.292 181.824 88.2801 18.04 13.0712
threshold=1.5000000000000002 14.500000000000002 16.500000000000004 1.5000000000000002 1.5000000000000002 3.5000000000000004 33.500000000000007
decision_type=2 2 2 2 2 2 2
left_child=1 3 -3 -1 5 -2 -6
right_child=4 2 -4 -5 6 -7 -8
leaf_value=-0.0011773930120962828 -0.017509076603087741 0.0058671528327749215 0.0015137493114930037 -0.016927980139230359 -0.0087254574389375849 -0.020010872290627632 -0.020232681307210617
leaf_weight=3929.5811717808247 427.9577776491642 4000.7185128182173 5724.030337959528 74.685267060995102 99.14049232006073 882.75109812617302 10.962835669517515
leaf_count=15853 1714 16242 23143 299 399 3532 44
internal_value=0 0.00191176 0.00330472 -0.00147116 -0.0184716 -0.019194 -0.00987122
internal_weight=0 13729 9724.75 4004.27 1420.81 1310.71 110.103
internal_count=61226 55537 39385 16152 5689 5246 443
is_linear=0
shrinkage=0.01


Tree=9
num_leaves=8
num_cat=0
split_feature=5 0 2 10 7 10 4
split_gain=5244.93 641.508 440.433 175.419 61.5908 12.6037 11.6466
threshold=1.5000000000000002 14.500000000000002 16.500000000000004 8.5000000000000018 1.5000000000000002 8.5000000000000018 2.5000000000000004
decision_type=2 2 2 2 2 2 2
left_child=1 3 -3 -1 6 -6 -2
right_child=4 2 -4 -5 5 -7 -8
leaf_value=-0.0055398139035523512 -0.017740243845592283 0.0057972997482119504 0.0014746400600977286 -0.00041762590783606384 -0.011673575173013076 -0.00067326498455804579 -0.019764125414828377
leaf_weight=846.276357203722 419.60760016739368 4000.9709627181292 5736.8667962551117 3184.5323708355427 64.288880109786987 12.429411709308622 881.97919845581055
leaf_count=3408 1679 16255 23199 12849 258 50 3528
internal_value=0 0.00186195 0.00325068 -0.00149304 -0.0185984 -0.00989137 -0.0191117
internal_weight=0 13768.6 9737.84 4030.81 1378.31 76.7183 1301.59
internal_count=61226 55711 39454 16257 5515 308 5207
is_linear=0
shrinkage=0.01


Tree=10
num_leaves=8
num_cat=0
split_feature=6 0 2 5 7 4 2
split_gain=5146.71 621.717 429.766 174.584 83.8142 17.1404 12.6999
threshold=1.5000000000000002 14.500000000000002 16.500000000000004 1.5000000000000002 1.5000000000000002 3.5000000000000004 33.500000000000007
decision_type=2 2 2 2 2 2 2
left_child=1 3 -3 -1 5 -2 -6
right_child=4 2 -4 -5 6 -7 -8
leaf_value=-0.0011512171396371343 -0.017176253236564524 0.005759821696839325 0.0014856997575013709 -0.016580923077022722 -0.0086080541721954302 -0.01961430387183187 -0.019944703664624325
leaf_weight=3930.4838168621063 428.21736972033978 3994.9499077945948 5722.2941231131554 74.725522875785828 99.208292275667191 882.9099362641573 10.974874719977377
leaf_count=15853 1714 16242 23143 299 399 3532 44
internal_value=0 0.00187634 0.00324288 -0.00143909 -0.0181141 -0.018818 -0.00973725
internal_weight=0 13722.5 9717.24 4005.21 1421.31 1311.13 110.183
internal_count=61226 55537 39385 16152 5689 5246 443
is_linear=0
shrinkage=0.01


Tree=11
num_leaves=8
num_cat=0
split_feature=6 0 2 10 7 4 2
split_gain=5044.5 609.617 421.801 172.248 82.3194 16.8934 12.4358
threshold=1.5000000000000002 14.500000000000002 16.500000000000004 8.5000000000000018 1.5000000000000002 3.5000000000000004 33.500000000000007
decision_type=2 2 2 2 2 2 2
left_child=1 3 -3 -1 5 -2 -6
right_child=4 2 -4 -5 6 -7 -8
leaf_value=-0.0054773934769305989 -0.017001470772498736 0.0057064620777515177 0.0014710730976522097 -0.00036352652797552439 -0.0085170016301299948 -0.019421820680462162 -0.019731254017561754
leaf_weight=831.08634096384048 428.29299300909042 3991.9972779303789 5721.4018054306507 3174.5390759110451 99.265913918614388 882.74422343075275 10.982622161507605
leaf_count=3345 1714 16242 23143 12807 399 3532 44
internal_value=0 0.00185805 0.00321173 -0.00142455 -0.0179332 -0.0186311 -0.00963413
internal_weight=0 13719 9713.4 4005.63 1421.29 1311.04 110.249
internal_count=61226 55537 39385 16152 5689 5246 443
is_linear=0
shrinkage=0.01


Tree=12
num_leaves=8
num_cat=0
split_feature=5 0 2 10 7 10 4
split_gain=4953.06 604.596 416.223 166.634 57.1682 12.269 10.6276
threshold=1.5000000000000002 14.500000000000002 16.500000000000004 8.5000000000000018 1.5000000000000002 8.5000000000000018 2.5000000000000004
decision_type=2 2 2 2 2 2 2
left_child=1 3 -3 -1 6 -6 -2
right_child=4 2 -4 -5 5 -7 -8
leaf_value=-0.0053871386994752378 -0.017261156062223143 0.0056393451753043054 0.0014340622516139073 -0.00039694781381856617 -0.011448076770521521 -0.00059687413942288421 -0.019194594918898748
leaf_weight=847.13472646474838 419.65355126559734 3992.1801621466875 5734.3275856673717 3185.1196418106556 64.338367760181427 12.433259725570677 881.42870843410492
leaf_count=3408 1679 16255 23199 12849 258 50 3528
internal_value=0 0.00181039 0.00316009 -0.00144534 -0.0180762 -0.00969071 -0.018571
internal_weight=0 13758.8 9726.51 4032.25 1377.85 76.7716 1301.08
internal_count=61226 55711 39454 16257 5515 308 5207
is_linear=0
shrinkage=0.01


Tree=13
num_leaves=8
num_cat=0
split_feature=6 0 2 5 7 4 2
split_gain=4857.44 585.856 406.231 166.992 78.4262 16.1472 12.1
threshold=1.5000000000000002 14.500000000000002 16.500000000000004 1.5000000000000002 1.5000000000000002 3.5000000000000004 33.500000000000007
decision_type=2 2 2 2 2 2 2
left_child=1 3 -3 -1 5 -2 -6
right_child=4 2 -4 -5 6 -7 -8
leaf_value=-0.0011120754769221859 -0.016691579233192727 0.0056023854273922523 0.0014438085854418497 -0.016203211393372607 -0.0084034677433735636 -0.019058393215540828 -0.019462725021729847
leaf_weight=3931.7729106992483 428.20871719717979 3986.0154714435339 5719.6747735738754 74.718600302934647 99.320051789283752 881.91341553628445 10.987592384219168
leaf_count=15853 1714 16242 23143 299 399 3532 44
internal_value=0 0.00182365 0.00315169 -0.00139352 -0.017603 -0.0182848 -0.00950507
internal_weight=0 13712.2 9705.69 4006.49 1420.43 1310.12 110.308
internal_count=61226 55537 39385 16152 5689 5246 443
is_linear=0
shrinkage=0.01


Tree=14
num_leaves=8
num_cat=0
split_feature=5 0 2 2 7 10 4
split_gain=4767.23 581.486 400.891 162.862 54.8031 12.0384 10.1809
threshold=1.5000000000000002 14.500000000000002 16.500000000000004 22.500000000000004 1.5000000000000002 8.5000000000000018 2.5000000000000004
decision_type=2 2 2 2 2 2 2
left_child=1 3 -3 -1 6 -6 -2
right_child=4 2 -4 -5 5 -7 -8
leaf_value=-0.00072874105808527182 -0.0169459265106497 0.0055364201366626736 0.0014072218968452378 -0.0072922337386364094 -0.011275238366118793 -0.00052809439712420538 -0.018839070538726653
leaf_weight=3610.8503146469593 419.41248874366283 3986.1407251656055 5732.6222776770592 422.261883482337 64.368675827980042 12.436481371521948 880.26369045674801
leaf_count=14555 1679 16255 23199 1702 258 50 3528
internal_value=0 0.00177615 0.00310081 -0.00141593 -0.0177431 -0.00953503 -0.0182281
internal_weight=0 13751.9 9718.76 4033.11 1376.48 76.8052 1299.68
internal_count=61226 55711 39454 16257 5515 308 5207
is_linear=0
shrinkage=0.01


Tree=15
num_leaves=8
num_cat=0
split_feature=6 0 2 10 7 4 2
split_gain=4680.9 562.862 391.264 163.175 74.8581 15.4298 11.7762
threshold=1.5000000000000002 14.500000000000002 16.500000000000004 8.5000000000000018 1.5000000000000002 3.5000000000000004 33.500000000000007
decision_type=2 2 2 2 2 2 2
left_child=1 3 -3 -1 5 -2 -6
right_child=4 2 -4 -5 6 -7 -8
leaf_value=-0.0053051613497809118 -0.016400344693525422 0.0055003978182204998 0.0014170535742115808 -0.00032971327977526673 -0.0082952635506165547 -0.018715137443510117 -0.019204830417944557
leaf_weight=831.82207019627094 427.91237618029118 3979.9073365628719 5717.9534611552954 3175.4920080602169 99.365371271967888 880.47330971062183 10.988664776086805
leaf_count=3345 1714 16242 23143 12807 399 3532 44
internal_value=0 0.00179011 0.00309282 -0.0013625 -0.017291 -0.0179581 -0.0093816
internal_weight=0 13705.2 9697.86 4007.31 1418.74 1308.39 110.354
internal_count=61226 55537 39385 16152 5689 5246 443
is_linear=0
shrinkage=0.01


Tree=16
num_leaves=8
num_cat=0
split_feature=5 0 2 2 7 10 4
split_gain=4594 558.753 386.15 159.412 52.5107 11.7052 9.69636
threshold=1.5000000000000002 14.500000000000002 16.500000000000004 22.500000000000004 1.5000000000000002 8.5000000000000018 2.5000000000000004
decision_type=2 2 2 2 2 2 2
left_child=1 3 -3 -1 6 -6 -2
right_child=4 2 -4 -5 5 -7 -8
leaf_value=-0.00070509213661712662 -0.016656192471121382 0.0054355530948476437 0.0013808869536973936 -0.0071966004848822611 -0.011114692842347333 -0.00051745181547981892 -0.018504987412667265
leaf_weight=3611.4476043283939 418.97274905443192 3979.9809598177671 5730.9225901067257 422.55595645308495 64.387840762734413 12.436140954494475 878.51181897521019
leaf_count=14555 1679 16255 23199 1702 258 50 3528
internal_value=0 0.00174318 0.00304268 -0.00138507 -0.0174323 -0.00939923 -0.017908
internal_weight=0 13744.9 9710.9 4034 1374.31 76.824 1297.48
internal_count=61226 55711 39454 16257 5515 308 5207
is_linear=0
shrinkage=0.01


Tree=17
num_leaves=8
num_cat=0
split_feature=6 0 2 4 7 4 2
split_gain=4513.08 540.776 376.873 160.106 71.5969 14.7967 11.4702
threshold=1.5000000000000002 14.500000000000002 16.500000000000004 1.5000000000000002 1.5000000000000002 3.5000000000000004 33.500000000000007
decision_type=2 2 2 2 2 2 2
left_child=1 3 -3 -1 5 -2 -6
right_child=4 2 -4 -5 6 -7 -8
leaf_value=-0.0095413686717928554 -0.016121624572532686 0.0054004405699142281 0.00139079835429849 -0.00084556231290791942 -0.0081890738098936901 -0.018390159225844246 -0.018956923197102283
leaf_weight=224.28352917730808 427.42101523280144 3973.6847469508648 5716.2387966513634 3783.8279059529305 99.403362229466438 878.46108683943748 10.985999763011931
leaf_count=903 1714 16242 23143 15249 399 3532 44
internal_value=0 0.00175721 0.00303509 -0.00133216 -0.0169939 -0.0176477 -0.0092607
internal_weight=0 13698 9689.92 4008.11 1416.27 1305.88 110.389
internal_count=61226 55537 39385 16152 5689 5246 443
is_linear=0
shrinkage=0.01


Tree=18
num_leaves=8
num_cat=0
split_feature=5 0 2 10 7 10 4
split_gain=4429.39 536.907 371.974 157.356 50.3961 11.3934 9.29864
threshold=1.5000000000000002 14.500000000000002 16.500000000000004 8.5000000000000018 1.5000000000000002 8.5000000000000018 2.5000000000000004
decision_type=2 2 2 2 2 2 2
left_child=1 3 -3 -1 6 -6 -2
right_child=4 2 -4 -5 5 -7 -8
leaf_value=-0.0051829836900497608 -0.016377154269898348 0.0053366848318184739 0.0013550468937600488 -0.00033610048707963648 -0.010960199609381462 -0.00050502593461017493 -0.018189332557904645
leaf_weight=848.06941065192223 418.33810104429722 3973.7124806642532 5729.2300817668438 3186.8151068538427 64.397534340620041 12.435758948326109 876.20997735857964
leaf_count=3408 1679 16255 23199 12849 258 50 3528
internal_value=0 0.00171084 0.00298567 -0.00135484 -0.0171367 -0.00926799 -0.0176037
internal_weight=0 13737.8 9702.94 4034.88 1371.38 76.8333 1294.55
internal_count=61226 55711 39454 16257 5515 308 5207
is_linear=0
shrinkage=0.01


Tree=19
num_leaves=8
num_cat=0
split_feature=6 0 2 4 7 4 2
split_gain=4352.44 519.719 363.032 155.963 68.6275 14.2929 11.187
threshold=1.5000000000000002 14.500000000000002 16.500000000000004 1.5000000000000002 1.5000000000000002 3.5000000000000004 33.500000000000007
decision_type=2 2 2 2 2 2 2
left_child=1 3 -3 -1 5 -2 -6
right_child=4 2 -4 -5 6 -7 -8
leaf_value=-0.0094028594923383484 -0.015849935097307921 0.0053024557889089817 0.0013650358488637496 -0.00082282063705019974 -0.0080817832557177061 -0.018081765442616315 -0.018718445913985821
leaf_weight=224.42035891115665 426.74370270967484 3967.3590736538172 5714.5313144028187 3784.4181384891272 99.434946238994598 875.91125462949276 10.979753792285917
leaf_count=903 1714 16242 23143 15249 399 3532 44
internal_value=0 0.00172476 0.00297848 -0.00130314 -0.016709 -0.0173506 -0.0091395
internal_weight=0 13690.7 9681.89 4008.84 1413.07 1302.65 110.415
internal_count=61226 55537 39385 16152 5689 5246 443
is_linear=0
shrinkage=0.01


Tree=20
num_leaves=8
num_cat=0
split_feature=5 0 2 2 7 10 4
split_gain=4272.76 515.919 358.339 155.974 48.4587 11.0929 8.94934
threshold=1.5000000000000002 14.500000000000002 16.500000000000004 22.500000000000004 1.5000000000000002 8.5000000000000018 2.5000000000000004
decision_type=2 2 2 2 2 2 2
left_child=1 3 -3 -1 6 -6 -2
right_child=4 2 -4 -5 5 -7 -8
leaf_value=-0.00065268114840671282 -0.01610995264542096 0.0052397599576178254 0.0013296937339416978 -0.0070714000334706631 -0.01080931768370182 -0.00049279044181809936 -0.017889872317478663
leaf_weight=3612.7453295588493 417.52124290168285 3967.3464121669531 5727.544918641448 422.89352114498615 64.398295789957047 12.435235410928724 873.38946349918842
leaf_count=14555 1679 16255 23199 1702 258 50 3528
internal_value=0 0.00167913 0.00292977 -0.0013253 -0.016855 -0.00913962 -0.0173142
internal_weight=0 13730.5 9694.89 4035.64 1367.74 76.8335 1290.91
internal_count=61226 55711 39454 16257 5515 308 5207
is_linear=0
shrinkage=0.01


Tree=21
num_leaves=8
num_cat=0
split_feature=6 0 2 10 7 4 2
split_gain=4200.37 499.338 357.876 154.026 65.8861 13.7959 10.9126
threshold=1.5000000000000002 14.500000000000002 22.500000000000004 8.5000000000000018 1.5000000000000002 3.5000000000000004 33.500000000000007
decision_type=2 2 2 2 2 2 2
left_child=1 3 -3 -1 5 -2 -6
right_child=4 2 -4 -5 6 -7 -8
leaf_value=-0.0051030432379804312 -0.01559390904871453 0.0036568881043651104 -0.0021176122473802622 -0.00027084208207313451 -0.0079794614346775389 -0.017789318924460173 -0.018488896998033352
leaf_weight=832.47865025699139 425.8933235257864 8444.2448491752148 1229.5285727530718 3177.0947451144457 99.458994418382645 872.85764662921429 10.970077782869337
leaf_count=3345 1714 34405 4980 12807 399 3532 44
internal_value=0 0.0016931 0.00292295 -0.00127412 -0.0164389 -0.0170694 -0.00902347
internal_weight=0 13683.3 9673.77 4009.57 1409.18 1298.75 110.429
internal_count=61226 55537 39385 16152 5689 5246 443
is_linear=0
shrinkage=0.01


Tree=22
num_leaves=8
num_cat=0
split_feature=5 0 2 2 7 10 0
split_gain=4123.21 495.731 349.727 152.7 46.7684 10.7756 8.72737
threshold=1.5000000000000002 14.500000000000002 16.500000000000004 22.500000000000004 1.5000000000000002 8.5000000000000018 39.500000000000007
decision_type=2 2 2 2 2 2 2
left_child=1 3 -3 -1 6 -6 -2
right_child=4 2 -4 -5 5 -7 -8
leaf_value=-0.00063083924093129847 -0.017140431840728224 0.0051588732710271664 0.0012941710345833865 -0.0069801733931461199 -0.010651951084625315 -0.00048367103718271115 -0.010413727212869402
leaf_weight=3613.2262923568487 1267.029902100563 3961.8641994148493 5725.1567896008492 423.13217207789421 64.392404735088348 12.434421315789221 19.585768654942513
leaf_count=14555 5128 16255 23199 1702 258 50 79
internal_value=0 0.00164793 0.00287478 -0.00129644 -0.0165855 -0.00900622 -0.017038
internal_weight=0 13723.4 9687.02 4036.36 1363.44 76.8268 1286.62
internal_count=61226 55711 39454 16257 5515 308 5207
is_linear=0
shrinkage=0.01


Tree=23
num_leaves=8
num_cat=0
split_feature=6 0 2 4 7 4 2
split_gain=4055.53 479.716 348.601 151.171 63.3692 13.4979 10.6525
threshold=1.5000000000000002 14.500000000000002 22.500000000000004 1.5000000000000002 1.5000000000000002 3.5000000000000004 33.500000000000007
decision_type=2 2 2 2 2 2 2
left_child=1 3 -3 -1 5 -2 -6
right_child=4 2 -4 -5 6 -7 -8
leaf_value=-0.0092182507311656166 -0.015340491601836972 0.0035934572605930645 -0.0021058309005202846 -0.00077280411330694204 -0.0078789542270459867 -0.017515289493263596 -0.018267808728582396
leaf_weight=224.51440797746181 424.84078404307365 8436.2072554975748 1229.6467395573854 3785.6847549527884 99.476536303758621 869.38660691678524 10.957126617431639
leaf_count=903 1714 34405 4980 15249 399 3532 44
internal_value=0 0.00166207 0.00286842 -0.00124563 -0.016181 -0.0168014 -0.00890973
internal_weight=0 13676.1 9665.85 4010.2 1404.66 1294.23 110.434
internal_count=61226 55537 39385 16152 5689 5246 443
is_linear=0
shrinkage=0.01


Tree=24
num_leaves=8
num_cat=0
split_feature=6 0 2 10 7 4 2
split_gain=3981.38 470.383 343.174 149.897 62.6424 13.4364 10.4695
threshold=1.5000000000000002 14.500000000000002 20.500000000000004 8.5000000000000018 1.5000000000000002 3.5000000000000004 33.500000000000007
decision_type=2 2 2 2 2 2 2
left_child=1 3 -3 -1 5 -2 -6
right_child=4 2 -4 -5 6 -7 -8
leaf_value=-0.0050097128364225479 -0.015207427023843841 0.0039366848354080806 -0.00040039018702048518 -0.00024341276263550225 -0.0077981617023569483 -0.017379030632622611 -0.018101440926544383
leaf_weight=832.73142074048519 424.27535937726498 7220.7898431569338 2441.1926378309727 3177.8083250522614 99.501956626772881 867.4505862146616 10.947301611304281
leaf_count=3345 1714 29493 9892 12807 399 3532 44
internal_value=0 0.00164588 0.00284088 -0.00123307 -0.0160477 -0.0166658 -0.00881938
internal_weight=0 13672.5 9661.98 4010.54 1402.18 1291.73 110.449
internal_count=61226 55537 39385 16152 5689 5246 443
is_linear=0
shrinkage=0.01


Tree=25
num_leaves=8
num_cat=0
split_feature=5 0 2 2 7 10 0
split_gain=3915.15 466.78 338.295 149.436 44.2066 10.3998 8.49016
threshold=1.5000000000000002 14.500000000000002 16.500000000000004 22.500000000000004 1.5000000000000002 8.5000000000000018 39.500000000000007
decision_type=2 2 2 2 2 2 2
left_child=1 3 -3 -1 6 -6 -2
right_child=4 2 -4 -5 5 -7 -8
leaf_value=-0.0005947185004262028 -0.016754007858948376 0.0050441415057737565 0.0012403269537199556 -0.0068742139292288906 -0.010458291604450812 -0.00046775099571093543 -0.010106821099610008
leaf_weight=3613.963862746954 1259.5665963590145 3953.8044767826796 5721.3895464241505 423.36578027904034 64.35903699696064 12.432231336832045 19.512649312615395
leaf_count=14555 5128 16255 23199 1702 258 50 79
internal_value=0 0.00160294 0.00279477 -0.0012532 -0.0162102 -0.00884086 -0.0166526
internal_weight=0 13712.5 9675.19 4037.33 1355.87 76.7913 1279.08
internal_count=61226 55711 39454 16257 5515 308 5207
is_linear=0
shrinkage=0.01


Tree=26
num_leaves=8
num_cat=0
split_feature=6 0 2 7 7 4 2
split_gain=3846.41 451.907 335.29 148.153 60.4019 13.1902 10.2314
threshold=1.5000000000000002 14.500000000000002 22.500000000000004 1.5000000000000002 1.5000000000000002 3.5000000000000004 33.500000000000007
decision_type=2 2 2 2 2 2 2
left_child=1 3 -3 -1 5 -2 -6
right_child=4 2 -4 -5 6 -7 -8
leaf_value=-0.0057730403075390525 -0.014968974509030689 0.0034999789702263103 -0.002089607274025893 -0.00039684974169450454 -0.007700574434236932 -0.017124477711106065 -0.017893662628733462
leaf_weight=603.33072492480278 422.97952675819397 8424.1149375289679 1229.8206408023834 3407.7608711570501 99.509325802326202 863.34062600135803 10.929012715816496
leaf_count=2429 1714 34405 4980 13723 399 3532 44
internal_value=0 0.00161573 0.00278792 -0.00120551 -0.0158064 -0.0164157 -0.00870929
internal_weight=0 13665 9653.94 4011.09 1396.76 1286.32 110.438
internal_count=61226 55537 39385 16152 5689 5246 443
is_linear=0
shrinkage=0.01


Tree=27
num_leaves=8
num_cat=0
split_feature=5 0 2 2 7 10 0
split_gain=3781.92 448.548 330.188 146.613 42.8045 10.1164 8.33202
threshold=1.5000000000000002 14.500000000000002 16.500000000000004 22.500000000000004 1.5000000000000002 8.5000000000000018 39.500000000000007
decision_type=2 2 2 2 2 2 2
left_child=1 3 -3 -1 6 -6 -2
right_child=4 2 -4 -5 5 -7 -8
leaf_value=-0.0005737393097074335 -0.016506705123042691 0.004966653958767016 0.0012067988578080594 -0.006792405184553589 -0.010312582634953174 -0.00045838143465699323 -0.0099130108372661504
leaf_weight=3614.4262133538723 1253.8669293373823 3948.205308765173 5718.9948993623257 423.54850985109806 64.333311423659325 12.431078135967253 19.461746200919151
leaf_count=14555 5128 16255 23199 1702 258 50 79
internal_value=0 0.00157316 0.00274237 -0.00122602 -0.0159687 -0.00871681 -0.0164059
internal_weight=0 13705.2 9667.2 4037.97 1350.09 76.7644 1273.33
internal_count=61226 55711 39454 16257 5515 308 5207
is_linear=0
shrinkage=0.01


Tree=28
num_leaves=8
num_cat=0
split_feature=6 0 2 2 7 4 2
split_gain=3717.45 438.564 257.399 216.873 58.3329 12.9745 10.0052
threshold=1.5000000000000002 19.500000000000004 16.500000000000004 20.500000000000004 1.5000000000000002 3.5000000000000004 33.500000000000007
decision_type=2 2 2 2 2 2 2
left_child=1 3 -3 -1 5 -2 -6
right_child=4 2 -4 -5 6 -7 -8
leaf_value=0.00049351521112089738 -0.014739666603722494 0.0053579505203349403 0.0016519453066334816 -0.004277946278986128 -0.0076046532401701054 -0.016881771139906205 -0.017693208713107075
leaf_weight=4659.1166754513979 421.53428936004639 3129.76168204844 4671.2773327678442 1197.3958480209112 99.51082082092762 858.84299176931381 10.907823100686072
leaf_count=18859 1714 12897 18952 4829 399 3532 44
internal_value=0 0.00158614 0.00313879 -0.000482036 -0.0155751 -0.0161765 -0.00860126
internal_weight=0 13657.6 7801.04 5856.51 1390.8 1280.38 110.419
internal_count=61226 55537 31849 23688 5689 5246 443
is_linear=0
shrinkage=0.01


Tree=29
num_leaves=8
num_cat=0
split_feature=5 0 2 10 7 10 0
split_gain=3655.8 433.146 318.852 143.207 41.4982 9.86821 8.18177
threshold=1.5000000000000002 14.500000000000002 16.500000000000004 8.5000000000000018 1.5000000000000002 8.5000000000000018 39.500000000000007
decision_type=2 2 2 2 2 2 2
left_child=1 3 -3 -1 6 -6 -2
right_child=4 2 -4 -5 5 -7 -8
leaf_value=-0.0048559305326420941 -0.016272388839968517 0.004882095766739771 0.0011854012789871801 -0.00023442770136728936 -0.010175430347167088 -0.00044229290921527501 -0.009729105965515945
leaf_weight=848.97781889140606 1247.682485178113 3941.93786431849 5717.4432465732098 3189.3714610934258 64.29906453192234 12.430570065975187 19.407034128904343
leaf_count=3408 5128 16255 23199 12849 258 50 79
internal_value=0 0.00154421 0.002694 -0.001206 -0.0157397 -0.00859862 -0.0161722
internal_weight=0 13697.7 9659.38 4038.35 1343.82 76.7296 1267.09
internal_count=61226 55711 39454 16257 5515 308 5207
is_linear=0
shrinkage=0.01


Tree=30
num_leaves=8
num_cat=0
split_feature=6 2 0 0 7 4 2
split_gain=3593.33 431.874 384.98 123.017 56.434 12.8332 9.79551
threshold=1.5000000000000002 22.500000000000004 14.500000000000002 27.500000000000004 1.5000000000000002 3.5000000000000004 33.500000000000007
decision_type=2 2 2 2 2 2 2
left_child=1 2 -1 -3 5 -2 -6
right_child=4 3 -4 -5 6 -7 -8
leaf_value=-0.00052405649655133571 -0.014514721575073742 -0.0055373931121329555 0.0033871294067170615 5.2793754520207753e-06 -0.0075075153685512618 -0.016649843129946201 -0.017499728958117963
leaf_weight=3591.6256438493729 419.93761931359768 966.07820136845112 8408.3583541661501 683.9018432945013 99.506626024842262 853.98173099756241 10.883863627910612
leaf_count=14464 1714 3898 34405 2770 399 3532 44
internal_value=0 0.00155693 0.0022165 -0.00324001 -0.0153517 -0.015946 -0.00849269
internal_weight=0 13650 12000 1649.98 1384.31 1273.92 110.39
internal_count=61226 55537 48869 6668 5689 5246 443
is_linear=0
shrinkage=0.01


Tree=31
num_leaves=8
num_cat=0
split_feature=5 0 2 2 7 4 0
split_gain=3534.83 419.685 245.991 214.285 40.3381 9.72474 8.04779
threshold=1.5000000000000002 19.500000000000004 17.500000000000004 20.500000000000004 1.5000000000000002 1.5000000000000002 39.500000000000007
decision_type=2 2 2 2 2 2 2
left_child=1 3 -3 -1 6 -6 -2
right_child=4 2 -4 -5 5 -7 -8
leaf_value=0.00046509244299702899 -0.016047647058966056 0.0050037425222764567 0.0014350463687584497 -0.004269987161571483 -0.013980397435748493 -0.0061732792143687071 -0.0095482612708715636
leaf_weight=4679.7454131245613 1241.0107156783342 3501.4197541326284 4307.9958937466145 1201.0132590830326 22.63724385201931 54.05022194981575 19.348649829626083
leaf_count=18946 5128 14437 17487 4841 91 217 79
internal_value=0 0.00151573 0.0030351 -0.000501942 -0.0155194 -0.00847785 -0.0159479
internal_weight=0 13690.2 7809.42 5880.76 1337.05 76.6875 1260.36
internal_count=61226 55711 31924 23787 5515 308 5207
is_linear=0
shrinkage=0.01


Tree=32
num_leaves=8
num_cat=0
split_feature=6 2 0 0 7 4 2
split_gain=3475.53 419.165 372.337 118.787 54.6537 12.6663 9.58806
threshold=1.5000000000000002 22.500000000000004 14.500000000000002 27.500000000000004 1.5000000000000002 3.5000000000000004 33.500000000000007
decision_type=2 2 2 2 2 2 2
left_child=1 2 -1 -3 5 -2 -6
right_child=4 3 -4 -5 6 -7 -8
leaf_value=-0.00051605435487472341 -0.014302569604562249 -0.0054528447423855706 0.0033308887008572201 -6.7044756649998027e-06 -0.0074157723367201597 -0.016428802673574775 -0.017312614258669441
leaf_weight=3591.6779848188162 418.22419019043446 966.6424558609724 8400.547106385231 683.79257653653622 99.497951567173004 848.78774505853653 10.857142016291617
leaf_count=14464 1714 3898 34405 2770 399 3532 44
internal_value=0 0.00152846 0.00217873 -0.00319645 -0.0151391 -0.015727 -0.00838946
internal_weight=0 13642.7 11992.2 1650.44 1377.37 1267.01 110.355
internal_count=61226 55537 48869 6668 5689 5246 443
is_linear=0
shrinkage=0.01


Tree=33
num_leaves=8
num_cat=0
split_feature=5 0 2 2 7 10 0
split_gain=3419.05 405.309 240.041 207.207 39.2704 9.50365 7.92531
threshold=1.5000000000000002 19.500000000000004 16.500000000000004 20.500000000000004 1.5000000000000002 8.5000000000000018 39.500000000000007
decision_type=2 2 2 2 2 2 2
left_child=1 3 -3 -1 6 -6 -2
right_child=4 2 -4 -5 5 -7 -8
leaf_value=0.00045650811438533871 -0.015832304590800074 0.0051295547421532422 0.0015494155711549967 -0.0041989451500300491 -0.0099086188819821532 -0.00035655186927798844 -0.0093721154215132881
leaf_weight=4678.8662031143904 1233.8905493319035 3121.9109215885401 4680.5384651720524 1201.5712068378925 64.209138229489326 12.432675510644911 19.286870300769806
leaf_count=18946 5128 12914 19010 4841 258 50 79
internal_value=0 0.00148775 0.0029819 -0.000494758 -0.0153079 -0.0083591 -0.0157329
internal_weight=0 13682.9 7802.45 5880.44 1329.82 76.6418 1253.18
internal_count=61226 55711 31924 23787 5515 308 5207
is_linear=0
shrinkage=0.01


Tree=34
num_leaves=8
num_cat=0
split_feature=6 2 0 0 7 4 2
split_gain=3362.74 406.963 360.155 114.684 52.992 12.5221 9.39289
threshold=1.5000000000000002 22.500000000000004 14.500000000000002 27.500000000000004 1.5000000000000002 3.5000000000000004 33.500000000000007
decision_type=2 2 2 2 2 2 2
left_child=1 2 -1 -3 5 -2 -6
right_child=4 3 -4 -5 6 -7 -8
leaf_value=-0.00050820930688353651 -0.014097959866834773 -0.00537031700088819 0.0032757926738242694 -1.9378057388084614e-05 -0.0073260659051832587 -0.016217448541969964 -0.017133567853544522
leaf_weight=3591.7173223793507 416.38847233355045 967.15657362341881 8392.6950035095215 683.67432408034801 99.483786135911942 843.28055164217949 10.828099608421324
leaf_count=14464 1714 3898 34405 2770 399 3532 44
internal_value=0 0.00150054 0.00214173 -0.00315428 -0.0149348 -0.0155168 -0.00828876
internal_weight=0 13635.2 11984.4 1650.83 1369.98 1259.67 110.312
internal_count=61226 55537 48869 6668 5689 5246 443
is_linear=0
shrinkage=0.01


Tree=35
num_leaves=8
num_cat=0
split_feature=5 2 0 0 7 4 0
split_gain=3308.17 391.793 354.151 114.271 38.2748 9.37775 7.81337
threshold=1.5000000000000002 22.500000000000004 14.500000000000002 27.500000000000004 1.5000000000000002 1.5000000000000002 39.500000000000007
decision_type=2 2 2 2 2 2 2
left_child=1 2 -1 -3 6 -6 -2
right_child=4 3 -4 -5 5 -7 -8
leaf_value=-0.00052831798123727908 -0.015625776587972914 -0.005312453610160037 0.0032148406509656309 1.501958972133878e-05 -0.013654448637458278 -0.0059803027158680045 -0.0092004101977285167
leaf_weight=3615.0223225206137 1226.35292288661 968.34483321011066 8402.9761929214001 689.15135794878006 22.582085028290749 54.003368318080902 19.221935972571373
leaf_count=14555 5128 3901 34463 2792 91 217 79
internal_value=0 0.00146031 0.0020889 -0.0030974 -0.0151047 -0.00824311 -0.0155266
internal_weight=0 13675.5 12018 1657.5 1322.16 76.5855 1245.57
internal_count=61226 55711 49018 6693 5515 308 5207
is_linear=0
shrinkage=0.01


Tree=36
num_leaves=8
num_cat=0
split_feature=6 2 0 0 7 4 2
split_gain=3254.28 390.983 347.917 110.007 51.4842 12.4121 9.19421
threshold=1.5000000000000002 22.500000000000004 19.500000000000004 27.500000000000004 1.5000000000000002 3.5000000000000004 33.500000000000007
decision_type=2 2 2 2 2 2 2
left_child=1 2 -1 -3 5 -2 -6
right_child=4 3 -4 -5 6 -7 -8
leaf_value=0.0001641549340237717 -0.013899037436799584 -0.0052571522008465531 0.0036011363670962289 -1.7303264908487443e-05 -0.0072353366727881899 -0.016014932892402377 -0.016951650027314059
leaf_weight=5223.5489656627178 414.43425272405148 967.90977457165718 6752.650398850441 683.67265240848064 99.465052410960197 837.48001606762409 10.796008333563803
leaf_count=21153 1714 3898 27716 2770 399 3532 44
internal_value=0 0.00147305 0.00210206 -0.00308812 -0.0147375 -0.0153145 -0.00818669
internal_weight=0 13627.8 11976.2 1651.58 1362.18 1251.91 110.261
internal_count=61226 55537 48869 6668 5689 5246 443
is_linear=0
shrinkage=0.01


Tree=37
num_leaves=8
num_cat=0
split_feature=5 0 2 2 7 10 0
split_gain=3201.93 378.183 231.832 195.278 37.3626 9.16189 7.71009
threshold=1.5000000000000002 19.500000000000004 16.500000000000004 20.500000000000004 1.5000000000000002 8.5000000000000018 39.500000000000007
decision_type=2 2 2 2 2 2 2
left_child=1 3 -3 -1 6 -6 -2
right_child=4 2 -4 -5 5 -7 -8
leaf_value=0.00044290624873586314 -0.015427569407309966 0.0049929261946425278 0.0014707961599467643 -0.0040755020635404697 -0.0096524836876854155 -0.00027279253537232921 -0.0090333709053563548
leaf_weight=4677.2420991510153 1218.4314659535885 3113.140684813261 4675.4417137950659 1202.3778886348009 64.092753499746323 12.434054851531981 19.154093369841576
leaf_count=18946 5128 12914 19010 4841 258 50 79
internal_value=0 0.00143337 0.00287861 -0.000481105 -0.0149093 -0.00812847 -0.0153286
internal_weight=0 13668.2 7788.58 5879.62 1314.11 76.5268 1237.59
internal_count=61226 55711 31924 23787 5515 308 5207
is_linear=0
shrinkage=0.01


Tree=38
num_leaves=8
num_cat=0
split_feature=6 2 0 0 7 4 2
split_gain=3150.63 379.567 336.539 106.22 50.0466 12.3084 9.01678
threshold=1.5000000000000002 22.500000000000004 14.500000000000002 27.500000000000004 1.5000000000000002 3.5000000000000004 33.500000000000007
decision_type=2 2 2 2 2 2 2
left_child=1 2 -1 -3 5 -2 -6
right_child=4 3 -4 -5 6 -7 -8
leaf_value=-0.00049450821668566372 -0.013708099592195417 -0.0051778129460096703 0.0031643610046862163 -2.9169765136843757e-05 -0.00714846284292901 -0.015821190123548927 -0.016784266973517897
leaf_weight=3591.7366723716259 412.37778955698013 968.33232137560844 8376.7678066641092 683.55891583859921 99.441302016377449 831.41224513947964 10.762281104922293
leaf_count=14464 1714 3898 34405 2770 399 3532 44
internal_value=0 0.00144615 0.00206634 -0.00304728 -0.0145483 -0.0151206 -0.00808948
internal_weight=0 13620.4 11968.5 1651.89 1353.99 1243.79 110.204
internal_count=61226 55537 48869 6668 5689 5246 443
is_linear=0
shrinkage=0.01


Tree=39
num_leaves=8
num_cat=0
split_feature=5 2 0 0 7 4 0
split_gain=3100.04 365.253 330.789 105.998 36.5029 9.05815 7.61666
threshold=1.5000000000000002 22.500000000000004 14.500000000000002 27.500000000000004 1.5000000000000002 1.5000000000000002 39.500000000000007
decision_type=2 2 2 2 2 2 2
left_child=1 2 -1 -3 6 -6 -2
right_child=4 3 -4 -5 5 -7 -8
leaf_value=-0.00051386723258495953 -0.015237093769699134 -0.0051231003045925294 0.0031047316211936355 6.9184855384249054e-06 -0.013344992555454564 -0.0057934010763341631 -0.0088698638412272584
leaf_weight=3615.0952150225639 1210.1467975378036 969.47712290287018 8387.0717903673649 689.03703533113003 22.513186261057854 53.94437612593174 19.083531886339188
leaf_count=14555 5128 3901 34463 2792 91 217 79
internal_value=0 0.00140696 0.0020148 -0.00299181 -0.0147212 -0.00801699 -0.0151382
internal_weight=0 13660.7 12002.2 1658.51 1305.69 76.4576 1229.23
internal_count=61226 55711 49018 6693 5515 308 5207
is_linear=0
shrinkage=0.01


Tree=40
num_leaves=8
num_cat=0
split_feature=6 2 0 0 7 4 2
split_gain=3050.82 364.673 325.387 101.906 48.7395 12.2349 8.83572
threshold=1.5000000000000002 22.500000000000004 19.500000000000004 27.500000000000004 1.5000000000000002 3.5000000000000004 33.500000000000007
decision_type=2 2 2 2 2 2 2
left_child=1 2 -1 -3 5 -2 -6
right_child=4 3 -4 -5 6 -7 -8
leaf_value=0.0001544206281055159 -0.013522094662626376 -0.0050693130494134687 0.0034800886496148711 -2.6977021870787272e-05 -0.0070606663228420501 -0.01563524128651575 -0.016614096271216582
leaf_weight=5221.9220435470343 410.21728253364563 968.96418131887913 6738.3500855565071 683.55729737877846 99.412926480174065 825.09248650074005 10.72554290294647
leaf_count=21153 1714 3898 27716 2770 399 3532 44
internal_value=0 0.00141969 0.00202808 -0.00298358 -0.0143652 -0.0149335 -0.007991
internal_weight=0 13612.8 11960.3 1652.52 1345.45 1235.31 110.138
internal_count=61226 55537 48869 6668 5689 5246 443
is_linear=0
shrinkage=0.01


Tree=41
num_leaves=8
num_cat=0
split_feature=5 0 2 2 7 4 4
split_gain=3002.28 352.873 223.965 184.108 35.714 8.84587 7.56002
threshold=1.5000000000000002 19.500000000000004 16.500000000000004 20.500000000000004 1.5000000000000002 1.5000000000000002 2.5000000000000004
decision_type=2 2 2 2 2 2 2
left_child=1 3 -3 -1 6 -6 -2
right_child=4 2 -4 -5 5 -7 -8
leaf_value=0.00042988784688259975 -0.013827727642134866 0.0048607663555964324 0.0013952046830291087 -0.0039566179359219718 -0.013178000726366799 -0.0057098494526738805 -0.015504556560271323
leaf_weight=4675.61502610147 399.88685116171837 3104.3392580151558 4670.272045776248 1203.0225241333246 22.470558598637581 53.915960922837257 820.65704204142094
leaf_count=18946 1679 12914 19010 4841 91 217 3528
internal_value=0 0.00138103 0.00277898 -0.00046778 -0.01454 -0.00790675 -0.0149552
internal_weight=0 13653.2 7774.61 5878.64 1296.93 76.3865 1220.54
internal_count=61226 55711 31924 23787 5515 308 5207
is_linear=0
shrinkage=0.01


Tree=42
num_leaves=8
num_cat=0
split_feature=6 2 0 0 7 4 2
split_gain=2955.2 354.016 314.481 98.4065 47.4951 12.0685 8.6729
threshold=1.5000000000000002 22.500000000000004 14.500000000000002 27.500000000000004 1.5000000000000002 3.5000000000000004 33.500000000000007
decision_type=2 2 2 2 2 2 2
left_child=1 2 -1 -3 5 -2 -6
right_child=4 3 -4 -5 6 -7 -8
leaf_value=-0.00048120492250723092 -0.013348992889710183 -0.0049931297135435634 0.0030567416811894945 -3.8251895494681036e-05 -0.0069759516005079777 -0.015454256862349138 -0.016456396814163353
leaf_weight=3591.7347051650286 408.05433210730553 969.30499747395515 8360.8207338452339 683.44759878516197 99.380182534456253 818.43839167058468 10.687243565917013
leaf_count=14464 1714 3898 34405 2770 399 3532 44
internal_value=0 0.00139376 0.00199359 -0.00294418 -0.0141891 -0.0147538 -0.00789648
internal_weight=0 13605.3 11952.6 1652.75 1336.56 1226.49 110.067
internal_count=61226 55537 48869 6668 5689 5246 443
is_linear=0
shrinkage=0.01


Tree=43
num_leaves=8
num_cat=0
split_feature=5 0 2 10 7 10 0
split_gain=2908.44 340.786 218.741 182.174 34.9745 8.75175 7.55869
threshold=1.5000000000000002 19.500000000000004 16.500000000000004 8.5000000000000018 1.5000000000000002 8.5000000000000018 39.500000000000007
decision_type=2 2 2 2 2 2 2
left_child=1 3 -3 -1 6 -6 -2
right_child=4 2 -4 -5 5 -7 -8
leaf_value=-0.0039013643485766064 -0.014878548521085144 0.0047897735584609613 0.0013629271344799871 0.00043981259786796275 -0.009293437489479351 -0.00012410769661397298 -0.0085070689280332019
leaf_weight=1219.7696813046932 1192.614714667201 3099.4886024743319 4668.0299322605133 4658.3403081744909 63.873096883296967 12.435901165008543 18.914712443947792
leaf_count=4926 5128 12914 19010 18861 258 50 79
internal_value=0 0.0013556 0.00273035 -0.000461027 -0.0143655 -0.00779913 -0.0147791
internal_weight=0 13645.6 7767.52 5878.11 1287.84 76.309 1211.53
internal_count=61226 55711 31924 23787 5515 308 5207
is_linear=0
shrinkage=0.01


Tree=44
num_leaves=8
num_cat=0
split_feature=6 2 0 0 7 4 2
split_gain=2862.56 345.73 303.61 95.924 46.3527 12.0669 8.52551
threshold=1.5000000000000002 22.500000000000004 14.500000000000002 27.500000000000004 1.5000000000000002 3.5000000000000004 33.500000000000007
decision_type=2 2 2 2 2 2 2
left_child=1 2 -1 -3 5 -2 -6
right_child=4 3 -4 -5 6 -7 -8
leaf_value=-0.00047000348377933802 -0.013170725121261627 -0.0049409476521765673 0.0030067227543276497 -4.8952924846821029e-05 -0.0068888476976221007 -0.015282829032600427 -0.016304440716220996
leaf_weight=3591.7846556603909 405.70289018750191 969.50598631799221 8353.0314119160175 683.34042471647263 99.343164473772049 811.67010760307312 10.647367775440214
leaf_count=14464 1714 3898 34405 2770 399 3532 44
internal_value=0 0.00136813 0.00196128 -0.00291844 -0.0140172 -0.0145789 -0.0078003
internal_weight=0 13597.7 11944.8 1652.85 1327.36 1217.37 109.991
internal_count=61226 55537 48869 6668 5689 5246 443
is_linear=0
shrinkage=0.01


Tree=45
num_leaves=8
num_cat=0
split_feature=5 2 0 0 7 4 0
split_gain=2818.27 332.554 298.125 95.9477 34.2787 8.56002 7.48523
threshold=1.5000000000000002 22.500000000000004 14.500000000000002 27.500000000000004 1.5000000000000002 1.5000000000000002 39.500000000000007
decision_type=2 2 2 2 2 2 2
left_child=1 2 -1 -3 6 -6 -2
right_child=4 3 -4 -5 5 -7 -8
leaf_value=-0.00048764443943593954 -0.014708773850537886 -0.0048904701516886287 0.0029490826076891646 -1.0448699717014009e-05 -0.012891277208965638 -0.0055330916394703642 -0.0083550076299711024
leaf_weight=3615.1856539696455 1183.4090110957623 970.60940317809582 8363.3853836804628 688.81843456625938 22.382676318287849 53.840123519301414 18.83654522895813
leaf_count=14555 5128 3901 34463 2792 91 217 79
internal_value=0 0.00133065 0.00191186 -0.0028648 -0.0141969 -0.00769381 -0.0146092
internal_weight=0 13638 11978.6 1659.43 1278.47 76.2228 1202.25
internal_count=61226 55711 49018 6693 5515 308 5207
is_linear=0
shrinkage=0.01


Tree=46
num_leaves=8
num_cat=0
split_feature=6 2 0 0 7 4 2
split_gain=2774.1 332.172 293.905 92.047 45.287 12.0407 8.3667
threshold=1.5000000000000002 22.500000000000004 19.500000000000004 27.500000000000004 1.5000000000000002 3.5000000000000004 33.500000000000007
decision_type=2 2 2 2 2 2 2
left_child=1 2 -1 -3 5 -2 -6
right_child=4 3 -4 -5 6 -7 -8
leaf_value=0.00014495668335399097 -0.013001324156692171 -0.0048380941424908362 0.0033082332946611777 -4.6477730957969827e-05 -0.0068051855142075325 -0.01511837424122745 -0.016149857249517591
leaf_weight=5219.6627545952797 403.287831813097 969.99617846310139 6716.9285694807768 683.3398589938879 99.301719009876251 804.71059729158878 10.604543849825857
leaf_count=21153 1714 3898 27716 2770 399 3532 44
internal_value=0 0.00134313 0.00192499 -0.00285767 -0.0138525 -0.0144116 -0.00770683
internal_weight=0 13589.9 11936.6 1653.34 1317.9 1208 109.906
internal_count=61226 55537 48869 6668 5689 5246 443
is_linear=0
shrinkage=0.01


Tree=47
num_leaves=8
num_cat=0
split_feature=5 2 0 0 7 10 4
split_gain=2731.6 319.366 287.894 92.1464 33.6387 8.45302 7.42137
threshold=1.5000000000000002 22.500000000000004 14.500000000000002 27.500000000000004 1.5000000000000002 8.5000000000000018 2.5000000000000004
decision_type=2 2 2 2 2 2 2
left_child=1 2 -1 -3 6 -6 -2
right_child=4 3 -4 -5 5 -7 -8
leaf_value=-0.00048147442368815511 -0.013319700038705241 -0.0047888096595297179 0.0028962614454923143 -6.9066645828384482e-06 -0.0090617829938325605 -4.7995495610660093e-05 -0.01499819167332435
leaf_weight=3615.1700564473867 392.74505284428596 971.07868656516075 8355.3674519062042 688.8159057945013 63.700370460748672 12.434857234358786 799.9592998623848
leaf_count=14555 1679 3901 34463 2792 258 50 3528
internal_value=0 0.00130617 0.00187617 -0.00280444 -0.0140341 -0.0075896 -0.0144455
internal_weight=0 13630.4 11970.5 1659.89 1268.84 76.1352 1192.7
internal_count=61226 55711 49018 6693 5515 308 5207
is_linear=0
shrinkage=0.01


Tree=48
num_leaves=8
num_cat=0
split_feature=6 2 0 0 7 4 2
split_gain=2688.94 319.119 284.047 88.3543 44.2797 11.9382 8.21537
threshold=1.5000000000000002 22.500000000000004 19.500000000000004 27.500000000000004 1.5000000000000002 3.5000000000000004 33.500000000000007
decision_type=2 2 2 2 2 2 2
left_child=1 2 -1 -3 5 -2 -6
right_child=4 3 -4 -5 6 -7 -8
leaf_value=0.00013958015761846146 -0.012842269902785742 -0.0047377084036225106 0.0032502266415788202 -4.3617211350770631e-05 -0.0067233423863951956 -0.014957667954432886 -0.016000824907560895
leaf_weight=5218.8264080733061 400.89541789889336 970.42951104044914 6709.713050737977 683.33734817802906 99.256642833352089 797.45306965708733 10.560308635234831
leaf_count=21153 1714 3898 27716 2770 399 3532 44
internal_value=0 0.00131856 0.0018893 -0.00279811 -0.013693 -0.01425 -0.00761549
internal_weight=0 13582.3 11928.5 1653.77 1308.17 1198.35 109.817
internal_count=61226 55537 48869 6668 5689 5246 443
is_linear=0
shrinkage=0.01


Tree=49
num_leaves=8
num_cat=0
split_feature=5 0 2 10 7 4 0
split_gain=2648.3 307.221 209.167 176.311 33.0376 8.29633 7.45706
threshold=1.5000000000000002 19.500000000000004 16.500000000000004 8.5000000000000018 1.5000000000000002 1.5000000000000002 39.500000000000007
decision_type=2 2 2 2 2 2 2
left_child=1 3 -3 -1 6 -6 -2
right_child=4 2 -4 -5 5 -7 -8
leaf_value=-0.0038272544164834549 -0.014388164475158748 0.004609050878115477 0.001252703020005476 0.0004442517585690723 -0.012617828023315222 -0.0053608905955722522 -0.0080146821885852468
leaf_weight=1219.3186196833849 1164.2566817253828 3086.7276484817266 4659.8049989640713 4656.9696706086397 22.284184008836746 53.755420878529549 18.651605397462845
leaf_count=4926 5128 12914 19010 18861 91 217 79
internal_value=0 0.00128215 0.00259009 -0.000442078 -0.013877 -0.00748761 -0.0142877
internal_weight=0 13622.8 7746.53 5876.29 1258.95 76.0396 1182.91
internal_count=61226 55711 31924 23787 5515 308 5207
is_linear=0
shrinkage=0.01


end of trees

feature_importances:
height_ft_pre_eq=85
age_building=76
other_floor_type_enc=51
foundation_type_enc=47
roof_type_enc=31
ground_floor_type_enc=30
superstructure_enc=30

parameters:
[boosting: gbdt]
[objective: binary]
[metric: binary_logloss]
[tree_learner: serial]
[device_type: cpu]
[data_sample_strategy: bagging]
[data: ]
[valid: ]
[num_iterations: 50]
[learning_rate: 0.01]
[num_leaves: 15]
[num_threads: 2]
[seed: 42]
[deterministic: 0]
[force_col_wise: 0]
[force_row_wise: 0]
[histogram_pool_size: -1]
[max_depth: 3]
[min_data_in_leaf: 20]
[min_sum_hessian_in_leaf: 0.001]
[bagging_fraction: 1]
[pos_bagging_fraction: 1]
[neg_bagging_fraction: 1]
[bagging_freq: 0]
[bagging_seed: 400]
[feature_fraction: 1]
[feature_fraction_bynode: 1]
[feature_fraction_seed: 30056]
[extra_trees: 0]
[extra_seed: 12879]
[early_stopping_round: 0]
[early_stopping_min_delta: 0]
[first_metric_only: 0]
[max_delta_step: 0]
[lambda_l1: 0]
[lambda_l2: 0]
[linear_lambda: 0]
[min_gain_to_split: 0]
[drop_rate: 0.1]
[max_drop: 50]
[skip_drop: 0.5]
[xgboost_dart_mode: 0]
[uniform_drop: 0]
[drop_seed: 17869]
[top_rate: 0.2]
[other_rate: 0.1]
[min_data_per_group: 100]
[max_cat_threshold: 32]
[cat_l2: 10]
[cat_smooth: 10]
[max_cat_to_onehot: 4]
[top_k: 20]
[monotone_constraints: ]
[monotone_constraints_method: basic]
[monotone_penalty: 0]
[feature_contri: ]
[forcedsplits_filename: ]
[refit_decay_rate: 0.9]
[cegb_tradeoff: 1]
[cegb_penalty_split: 0]
[cegb_penalty_feature_lazy: ]
[cegb_penalty_feature_coupled: ]
[path_smooth: 0]
[interaction_constraints: ]
[verbosity: 1]
[saved_feature_importance_type: 0]
[use_quantized_grad: 0]
[num_grad_quant_bins: 4]
[quant_train_renew_leaf: 0]
[stochastic_rounding: 1]
[linear_tree: 0]
[max_bin: 255]
[max_bin_by_feature: ]
[min_data_in_bin: 3]
[bin_construct_sample_cnt: 200000]
[data_random_seed: 175]
[is_enable_sparse: 1]
[enable_bundle: 1]
[use_missing: 1]
[zero_as_missing: 0]
[feature_pre_filter: 1]
[pre_partition: 0]
[two_round: 0]
[header: 0]
[label_column: ]
[weight_column: ]
[group_column: ]
[ignore_column: ]
[categorical_feature: ]
[forcedbins_filename: ]
[precise_float_parser: 0]
[parser_config_file: ]
[objective_seed: 16083]
[num_class: 1]
[is_unbalance: 0]
[scale_pos_weight: 1]
[sigmoid: 1]
[boost_from_average: 1]
[reg_sqrt: 0]
[alpha: 0.9]
[fair_c: 1]
[poisson_max_delta_step: 0.7]
[tweedie_variance_power: 1.5]
[lambdarank_truncation_level: 30]
[lambdarank_norm: 1]
[label_gain: ]
[lambdarank_position_bias_regularization: 0]
[eval_at: ]
[multi_error_top_k: 1]
[auc_mu_weights: ]
[num_machines: 1]
[local_listen_port: 12400]
[time_out: 120]
[machine_list_filename: ]
[machines: ]
[gpu_platform_id: -1]
[gpu_device_id: -1]
[gpu_use_dp: 0]
[num_gpu: 1]

end of parameters

pandas_categorical:[]
